1471 100
React -0.349707 0.543090 -0.280886 -0.113527 -0.791939 -0.849152 -0.881629 -0.350129 -0.189229 0.403106 0.663611 1.373223 -0.080232 -1.332415 -0.081331 1.052807 -0.417141 -0.518839 -1.444776 0.919846 0.739492 -0.324352 0.706392 0.210358 1.344834 1.560145 -0.903390 1.962469 -0.552807 -2.506687 -1.938051 -0.425956 0.097657 0.617819 -0.609446 0.265391 -1.423873 -0.671840 0.447573 -1.287299 -1.863198 -0.341999 -0.306783 0.773557 1.319478 -0.043961 1.229909 0.285524 -0.593852 1.146769 1.743732 0.043046 0.110235 0.723290 -0.238514 1.150907 -0.170370 0.045724 -0.786790 -0.704205 0.320787 -0.450609 1.077266 -0.395356 0.384905 -1.483237 1.649265 0.777201 0.805343 0.177432 0.744088 -0.548933 -2.164951 -1.811903 -0.187918 -0.796513 -0.926222 0.186252 0.068060 -0.434026 -0.867109 1.368439 0.043582 0.014096 -0.876781 0.111500 -0.271142 1.438771 -0.820884 -0.666059 0.001366 1.406770 0.128775 1.137636 -1.042101 0.369138 1.364029 0.504634 -0.315518 -0.436121
2018 -0.474908 -0.532806 0.042043 -0.643173 1.195856 -0.197949 1.033057 -1.268264 -1.845635 -0.022906 0.992581 0.519049 0.919570 0.442843 -0.217257 0.225386 0.277806 -0.009681 -0.270251 0.692026 -0.177430 -0.210470 0.599999 -0.191322 -0.057360 0.425723 -0.077907 0.245972 -0.611360 -1.735520 -1.155805 0.307611 0.076920 -0.803276 -0.527145 -0.001285 0.923620 0.513528 -0.486603 0.607610 -0.738230 -0.424676 -0.365397 0.702273 -0.664668 0.487025 0.450849 0.827601 -0.014323 -0.320173 0.206459 -1.447022 -0.604830 0.533420 0.446855 0.859835 -0.321542 -0.761261 0.692314 0.363397 0.047185 0.046789 0.682599 0.204159 0.987300 -1.400577 0.987465 -0.187804 -1.236832 1.406522 0.459890 -0.066609 -1.451232 -1.071268 -0.443382 0.717852 0.368057 -0.382705 0.930424 -1.259555 1.164140 0.842048 0.633106 -0.055429 0.210352 0.240252 -0.225686 -0.239354 -0.268658 -1.430648 -2.627943 1.595051 0.673276 0.178685 -0.465822 -0.431125 0.396253 0.511147 -1.193266 1.233157
2017 0.052829 -0.040090 0.590248 -0.355503 1.108621 -0.912892 0.588397 -0.818406 -1.321061 0.323806 0.675312 0.586728 -0.101373 -0.345273 -1.008278 0.605456 1.201177 -0.689181 0.928370 -0.564932 -0.446865 -0.484026 0.344678 -0.023607 -0.468507 -0.154358 0.496331 -0.537060 -0.919782 -0.870755 -0.396916 1.073074 -1.078580 -1.340987 -0.424529 0.995954 0.348696 0.725457 -0.421532 0.978577 -0.727828 -0.496273 0.258582 0.331532 -1.186469 1.037758 -0.265199 0.101845 0.445563 0.354680 -0.187706 -1.961357 -0.543498 0.087656 1.262151 0.504770 -0.083286 -0.478953 1.325455 0.795592 -0.170322 -1.214511 -0.501990 0.058498 1.449471 -0.075778 -0.390741 -0.419344 -1.414974 0.961927 0.132482 0.189089 -0.514648 -0.101291 -0.298671 0.892024 0.484671 -0.135833 1.529446 -1.488302 1.353383 0.614188 1.027945 0.335971 0.083324 0.205239 0.166777 -1.701096 -0.703659 -0.481202 -2.246936 1.026876 0.341688 0.899368 -0.233296 -0.712402 -0.424530 -0.007160 -1.026043 0.814538
I -0.235960 -1.586370 -1.053059 0.730481 0.036272 1.306111 0.392523 -0.508639 -0.322809 0.676309 1.145670 -0.919365 1.116312 0.009286 -0.247284 0.415790 -0.329227 -0.845803 -1.832877 0.232482 -0.923672 1.171276 0.550282 -0.823577 -0.640455 -0.391407 -0.743061 -0.498113 0.488404 -0.082628 -0.512367 -1.789589 1.981511 1.298357 0.279371 0.306840 -1.287519 0.178463 1.257817 0.080785 -0.239867 0.379812 -0.537313 -1.084055 1.915400 -0.023698 1.745975 0.405749 -0.237000 1.741951 -0.296081 0.401256 1.329231 -0.367876 0.446806 2.019653 -1.178066 0.634536 1.090023 0.169755 -0.573718 -0.514183 -1.110118 1.232627 2.132696 -1.175059 1.888237 -0.235176 -0.494419 -0.380003 0.000920 -0.051066 -1.279749 -0.170543 0.294784 0.440935 0.108045 -1.342191 0.336280 -1.957885 0.580404 -0.422772 -0.659686 -0.650326 0.398914 0.302311 0.555909 0.962656 -0.293723 0.848829 -1.124582 -0.924172 -0.046050 0.568615 -0.946449 0.248508 -0.110648 0.594640 0.348614 2.837533
MongoDB 0.465342 0.702827 -0.217843 -1.153942 -0.640970 -0.050016 -0.947830 0.598671 -1.147486 0.333804 0.279871 0.350382 0.271119 -1.108990 0.598586 1.291157 -0.914997 -0.660164 -1.984821 0.401446 1.040972 0.875197 1.047701 -0.020658 1.471163 1.186754 -0.101189 1.942191 -0.130582 -2.909692 -1.210504 -1.170876 -0.850799 1.048352 -0.459111 -0.968114 -1.228718 -1.448196 -0.292288 -1.045496 -1.599694 0.086598 -0.280381 0.649829 1.308114 0.015408 1.385470 -1.313684 -1.082872 1.938442 0.741123 -0.659841 -0.887140 0.295597 -0.596637 0.244895 -0.296657 0.940444 0.379204 -0.759059 0.852077 -0.188721 1.477661 0.251552 0.159415 -1.027581 2.313271 0.486622 2.083139 0.549431 0.906852 -0.717312 -2.546313 -1.159039 -0.227718 -0.407807 -0.305126 0.551014 -0.747271 -0.540308 -0.767032 1.092101 -0.692788 -0.373320 -0.556417 -0.556241 -0.296548 1.945474 -1.245423 -0.165799 0.334641 1.267017 0.072669 1.024548 -0.672713 1.360104 0.896388 0.598987 -0.245000 -0.970363
2016 0.098611 -0.359190 1.130794 0.355519 0.959579 -1.587368 0.515480 -1.188027 -1.164625 0.184179 0.258781 1.440660 -0.144065 -0.447517 -0.668050 0.354511 1.645170 -0.816378 1.427186 -0.886906 -0.534020 -0.559267 0.394305 -0.363546 0.240613 -0.055767 0.859152 -0.810159 -0.968969 -0.116087 -0.412593 1.443657 -1.803247 -1.375619 -0.616387 0.490163 -0.243033 0.623046 -0.358808 1.435082 -0.528255 -1.012262 0.296136 0.152536 -1.211165 0.675061 -0.596936 -0.257016 1.204081 0.482902 -0.795001 -1.909576 -0.806740 -0.425223 1.837990 0.162041 0.525798 -1.018999 0.903975 1.155625 0.000731 -1.405228 -0.217042 -0.445363 0.706247 0.335897 -0.653731 -1.053317 -1.064356 1.405520 -0.583383 0.388270 1.062861 0.029644 -0.076791 0.949203 0.792553 0.429786 1.629834 -1.835767 2.038921 0.892483 0.961280 0.453592 0.155937 0.367103 0.171155 -1.723511 -0.494056 -0.708064 -1.549250 0.790079 0.054486 1.566518 -0.469576 -0.709291 -0.688269 0.180763 -0.725387 1.064008
Software 2.312022 0.444792 0.310329 -1.420926 0.450065 -0.786478 0.569757 -0.367422 -1.058907 -0.017771 -0.245584 1.010325 -0.718859 0.361080 -0.290375 1.604142 -0.179063 -0.134631 -0.243343 -0.326175 0.160568 -1.452664 1.096635 -0.441604 -0.994470 -0.632239 -0.015628 -1.499995 -1.503538 0.713008 -0.933379 0.652289 1.564202 -0.893501 0.305677 0.394854 -0.672734 -0.190402 0.337172 -0.045792 0.112549 -0.526140 0.812025 0.363762 0.060837 -0.615152 0.836387 -0.480090 -0.241580 -0.345678 0.376168 0.234117 0.752005 0.663821 1.161567 1.456387 0.990893 -0.451186 1.696098 0.248913 0.582984 -2.167354 -1.663678 0.947952 1.659969 -0.756862 0.319948 -0.283298 -1.874755 0.671629 0.539261 -0.545581 -1.692528 -0.950565 -0.163116 -0.588762 -0.201132 -0.023472 1.857511 -1.745421 0.990376 0.367067 0.719851 -0.343518 -0.125745 -0.343683 -0.715018 -1.593770 -0.944063 0.322062 -0.785974 0.920829 -0.057562 0.110119 -0.374414 0.651127 0.164619 -0.695156 -1.216261 1.132413
Lambda 0.879789 -1.419218 0.143792 -0.867028 1.809480 -0.656798 0.432766 -0.337462 -1.444146 0.260346 0.614686 0.864088 0.041933 0.501698 -0.680458 0.705681 1.260203 -1.177382 0.100646 1.607918 -0.195354 -0.030939 0.002148 0.879670 1.499977 -0.868092 0.068861 0.514906 -0.085476 -0.478090 -1.542786 1.054209 0.029038 -0.884790 -0.020308 0.628697 0.171948 0.370404 -0.462860 -0.224710 -1.255526 -0.457536 -0.481985 0.895567 -0.091517 1.137717 -0.412164 1.359089 -0.758409 -0.693219 0.707774 -0.697408 -0.196901 0.559230 -0.372647 0.402640 -0.791991 -0.367975 0.395179 0.853577 -0.240172 -0.792021 -0.624071 0.213267 0.247359 -0.519095 1.916685 -0.047667 -2.522299 1.175012 -0.325101 -1.020264 -1.253472 -1.266392 -0.789289 0.935662 -0.051447 0.225044 0.610468 -0.022447 0.651750 0.278119 0.101081 0.557376 -1.201129 1.179063 0.522334 -0.733750 -0.589152 -0.168085 -1.293073 0.610672 0.833579 -1.103620 0.403268 0.480234 0.441570 -0.946654 -0.826643 0.968706
team -0.371188 -1.571959 -0.102941 -1.559098 1.828023 -0.837929 1.795292 -0.125328 -0.670555 -1.035584 1.122098 -0.523017 0.827882 -0.280522 0.001940 0.794306 0.489905 -0.087375 -0.116823 0.276143 -1.913575 -0.541119 -0.857018 -0.751228 2.114889 -0.283495 -0.242520 0.353306 -0.548505 -1.264036 -0.211593 0.392668 1.654224 -0.285695 -0.301566 0.104355 1.973495 0.352561 1.188798 -0.181457 -0.319162 -0.942491 -0.274659 0.339415 -0.301984 -0.109141 -0.601899 0.620847 -0.515173 0.088285 0.742778 0.540721 0.104777 -1.187574 -1.121093 -0.429035 -0.972339 0.111951 0.122961 0.965090 -0.543938 -0.090930 -0.141405 -0.292304 0.847693 -0.922488 0.919352 1.167042 -0.803556 0.971246 1.012461 -0.570369 -1.583200 -0.670575 -1.141253 -0.002315 0.877104 -0.850967 1.646051 0.027825 0.486691 0.037798 -0.745228 1.660570 -0.259570 -0.706330 0.566458 -0.195059 -0.100865 -1.185943 -0.254414 -0.240441 1.086996 -0.504376 -0.150336 -0.149147 0.448344 0.426127 1.225503 -0.029885
Redux 0.874789 0.969360 0.164193 -1.270150 -0.651162 -1.039791 -0.643566 1.080607 -0.679665 -0.343661 -0.036540 1.097045 -0.200606 -0.877465 0.617232 0.617081 -0.489811 -0.299714 -1.556836 0.792054 0.891078 0.505494 0.815406 0.290922 1.688173 1.040494 -0.032633 2.187848 -0.753303 -2.914091 -1.589584 -1.266244 -0.912999 0.418254 -0.488757 -1.000043 -1.607382 -1.689489 -0.144263 -1.190794 -1.937747 -0.173176 -0.053698 0.909604 0.884232 0.317204 1.412384 -1.382841 -1.215719 1.826983 1.077144 -0.463241 -0.914690 0.681114 -0.547074 0.552815 0.316770 0.541419 0.189621 -0.540212 0.919632 -0.644787 0.684722 0.488309 -0.008138 -0.748790 1.657941 0.574723 1.489451 1.243972 0.269450 -0.491040 -1.942147 -1.166130 -0.255834 -0.870210 -0.640139 0.602147 -0.812526 -0.488964 -0.337396 1.775061 -0.139518 -0.316650 -1.119018 -0.354660 -0.831879 1.751625 -1.451223 -0.058316 0.414390 1.330821 1.324429 0.421647 -1.049435 1.872324 0.734861 0.572220 -0.411337 -0.657153
Express 0.775857 0.690348 -0.224282 -0.964019 -0.180791 -0.318051 -0.277892 0.063708 -0.778071 0.929875 0.136710 0.194133 0.534622 -0.720218 0.322526 1.766028 -1.418059 -0.699795 -1.758507 0.762271 0.822591 0.637050 0.683144 -0.428771 1.516941 1.060502 -0.251965 2.020240 0.084770 -2.831434 -1.563246 -1.015123 -0.900005 1.147646 -0.867037 -0.507207 -1.124287 -1.596364 -0.419460 -1.058834 -1.896475 0.019765 -0.186742 0.213251 1.470052 -0.170604 0.913322 -1.048404 -1.440356 2.107728 1.044909 0.015254 -0.450982 0.409114 -0.472847 1.006892 -0.329984 0.585915 0.146555 -0.763483 0.380949 -0.520060 1.145866 0.735569 0.558127 -1.811737 2.136066 0.579283 1.841299 0.563094 1.195452 -0.853653 -2.693150 -1.598499 -0.437586 -0.102977 -0.579322 0.208094 -0.470778 -0.574456 -0.318634 1.633796 -0.787650 -0.796773 -0.533071 -0.750196 -0.218959 1.926721 -0.562388 -0.589748 -0.148488 1.449305 0.048145 0.787806 -1.324001 1.065219 0.660595 0.207727 -0.607128 -0.586903
Python 0.110707 0.752329 -0.628003 -0.581988 -1.297834 -0.281078 -0.910513 -0.062246 -0.628596 1.449489 -1.043874 -0.014328 0.011013 -0.421620 0.522039 0.630866 -0.751710 -0.414146 -1.806255 0.053324 0.238970 0.504311 1.486184 0.216871 -0.685002 0.302751 -0.121842 0.629053 -0.666266 -1.919648 -0.834139 -1.399634 0.163260 2.269366 0.743358 -0.903164 -1.225292 -0.767176 0.102064 -0.184128 -0.821515 -0.733116 -0.552388 0.464881 0.871901 0.604542 1.747947 -1.491248 -1.552845 0.843854 0.517503 -1.289373 -0.705487 0.453076 -0.930818 0.061904 0.470312 -0.763438 0.040213 0.070288 0.709663 -0.419918 0.071807 1.056723 -0.252882 -0.301334 2.000958 0.022445 0.444639 0.300586 0.556464 -0.669381 -1.647302 -0.983112 0.279941 -1.126364 -1.329491 0.756086 -0.359839 -0.350298 0.328888 0.616562 0.264926 0.610956 -1.360361 0.339290 -0.297359 1.148501 -1.593633 0.334321 -0.287897 0.824416 0.010027 0.474510 -0.157296 0.258813 0.520844 1.128218 -0.827516 0.206651
School 0.090426 0.630867 0.498206 -0.589816 1.690058 -1.445877 0.907624 0.426187 -0.444884 -0.138635 0.906188 0.406660 -0.362115 1.015500 -0.637774 0.668547 0.444268 -0.114536 0.580436 0.709501 -1.041884 -1.362810 0.199068 -0.516426 0.852354 -0.814171 0.605263 0.397671 -0.264664 -1.005442 -1.038081 -0.061303 -0.019148 -0.962815 -0.191616 0.454477 0.108069 0.799185 -0.628581 0.686921 -1.008463 -1.067827 0.057248 0.693391 -1.183583 -0.248233 0.302792 1.702267 -0.452601 -0.863947 0.294441 -0.856523 -0.679118 0.212280 0.546921 1.770641 0.012297 -0.762616 1.075980 1.022721 -0.881768 -0.556851 -1.228962 0.858575 0.643424 0.164017 0.599889 0.750901 -1.826167 1.509874 -0.556585 -0.000507 -1.137894 0.424145 -0.745075 1.608709 0.186404 -0.779644 -0.179404 0.281005 -0.762654 1.479176 2.147152 -0.228091 -1.132014 0.585001 1.322902 0.116744 -0.574882 -0.066764 -1.847138 2.346270 0.491783 -0.227578 -0.397227 0.374786 0.180429 0.588993 -0.170094 1.210292
development 1.519245 -0.386574 -1.477327 -0.989353 0.760859 -1.045533 0.936533 0.695465 -0.700429 -0.001484 -0.298556 -0.265085 -0.716603 0.444760 0.772328 1.321747 -1.636218 -0.094272 -1.621392 0.612088 -0.657834 -0.274233 1.190748 -0.430820 0.346690 0.028081 0.568479 -0.493862 -0.760276 -0.690294 0.497152 -0.229624 1.823346 0.598652 0.801576 -1.489994 -0.724096 -0.558675 0.776034 0.137175 -0.370453 -0.496080 -0.504878 -0.186968 1.304698 -0.662288 0.503545 0.193654 -1.003443 -0.114498 0.002821 -0.170138 -0.645714 -0.604636 -0.253783 1.249985 0.040497 0.499970 1.015173 0.931114 1.386027 -0.231341 -0.943183 0.821049 0.762963 -0.801925 2.221817 1.246747 -0.260116 -0.001024 0.702953 -2.042235 -1.459819 -0.231220 -0.114730 0.024757 -0.606200 -1.361460 0.497805 -0.599256 -1.216164 0.175820 -0.094954 -0.239539 -0.944767 0.661747 0.822060 0.562481 -1.026278 0.340145 0.841542 0.650018 -1.000606 -0.926405 0.985061 -0.114985 2.086670 0.453043 -0.354093 0.639518
Node 0.454732 0.930093 -0.279996 -0.590943 -0.204153 -0.016574 -1.205353 0.651955 -0.466075 -0.034475 0.710715 0.789759 -0.191503 -0.940709 0.168729 0.673052 -0.954619 -0.340467 -1.726454 -0.150937 0.339786 0.522617 0.517051 -0.476773 1.153127 1.098616 0.066656 2.500380 -0.328268 -1.953400 -1.383196 -1.418928 -1.191475 0.835739 -0.514054 -0.192382 -1.762014 -1.139727 -0.293749 -0.658206 -2.018483 0.073834 0.193918 0.000153 1.070272 0.319399 2.190206 -0.847534 -1.540583 2.191204 1.475680 -0.181390 0.030683 0.299909 -0.894904 1.143263 0.265117 1.149230 -0.198400 -0.681495 0.001979 -0.088870 1.813094 0.530623 0.232895 -1.087146 2.095005 1.083650 1.884359 0.713118 0.454197 0.292026 -1.803535 -1.038463 0.397483 -0.167197 -0.257173 0.328090 -0.507602 -0.969546 -1.145003 1.236570 -0.535185 -0.751453 -0.603383 -0.960275 -0.401897 1.882873 -0.874145 -0.450677 0.014030 1.507981 0.211233 0.317355 -0.699950 1.515349 0.474646 0.191420 -0.621521 -0.125314
app -1.149491 -0.736285 -1.549285 0.111087 -0.949794 -0.361618 0.292027 0.027419 0.430814 -0.442272 2.868642 1.019193 0.009204 -0.413570 0.452515 0.282013 -0.312824 -0.242561 0.066698 0.631177 -0.499699 0.081761 -0.112300 -1.366437 0.512417 1.764412 -1.265571 1.369756 1.425387 -2.512980 -0.930731 -1.233674 0.526266 -1.136843 -0.487569 -0.546217 0.936766 -0.679833 0.997815 -1.316036 -0.842050 1.316654 0.261043 1.042268 1.082998 0.706144 0.809443 -0.346387 -0.899436 1.165022 0.937802 -0.154224 -0.467758 1.659379 -1.195688 0.292604 -1.863202 1.043463 0.860181 -0.759179 0.094326 1.000514 0.950291 -0.416997 1.799642 -1.981516 1.049792 1.993585 -0.308585 -0.104267 1.938450 0.291259 -1.176280 -1.039836 -1.372279 -0.297278 0.674052 -0.028602 0.829880 -0.205490 -0.709302 1.104335 -0.321722 1.937962 -0.109801 -0.852075 -1.016323 0.975365 0.111006 -1.021959 -0.630713 1.305370 0.707711 -0.467887 -0.737475 0.575917 0.471425 0.298084 -0.562897 -0.639555
JavaScript -0.429660 0.040046 -0.241668 0.842651 -0.426805 -0.728173 -0.603273 0.214296 -0.421556 0.097966 0.094817 1.307903 -0.830153 -0.047356 0.444048 0.560810 -0.847369 -0.517167 -0.834280 0.441142 0.030739 0.848767 1.175720 0.080702 0.082282 0.704665 -0.121024 0.302355 -0.020034 -1.432821 -1.720491 -0.852715 -0.686936 1.053951 0.385253 -0.914582 -1.710915 -0.556205 0.370190 -0.419077 -0.784407 -0.775793 1.188634 -0.440283 1.320995 -0.432511 1.097997 -0.259833 -0.858548 0.973288 -0.550787 -0.105668 -0.016008 0.799251 0.671432 1.198833 0.597011 0.186947 1.675383 -0.165818 0.879351 -0.550728 -0.338478 1.327214 0.724616 0.161839 0.473446 -0.428055 0.029774 0.394894 0.689404 -0.229220 -1.150340 0.026751 0.463447 0.292863 -0.187206 -0.324700 0.339667 -1.160882 0.578098 1.731727 0.434105 -0.251486 -0.027037 -0.131346 -0.179655 1.265571 -1.953240 1.073549 -0.246866 0.676793 0.215906 0.489915 -1.444367 1.135451 -0.217661 0.819154 -0.088083 0.696530
project -0.127254 -0.217112 -0.826639 -0.724850 0.697252 -0.567163 1.071177 0.198417 -0.345877 -0.004528 0.075305 0.778916 -0.568261 0.581387 0.388920 0.236149 -0.948600 -0.041112 -1.223709 0.136661 -0.504248 -0.268348 0.766172 -0.782603 0.978270 0.365988 -0.417645 1.226378 0.362771 -0.560118 -0.305427 -0.785537 1.332015 -0.511210 0.675821 -0.565791 1.144538 0.479759 0.477237 -0.215063 -1.104646 -0.841493 -0.444573 0.164808 0.610859 -0.190925 0.124996 0.512072 0.025350 0.056708 -0.084938 -0.214432 -0.570703 0.175962 -1.397588 0.187251 -0.919176 -0.129644 -0.904981 0.551155 -0.283257 0.489629 -0.187390 0.422630 0.774204 -0.752663 1.629801 0.845820 -0.565683 0.408365 0.158183 -0.649804 -0.367741 -1.065054 -0.205429 0.065671 -0.136773 0.203734 0.028634 0.071618 -1.112840 0.033268 -0.646936 0.326252 -1.004893 0.002690 -0.205610 1.051234 -0.546471 -0.267057 -0.401274 0.615269 0.695396 -1.475012 -0.404024 0.402833 0.800910 -0.207224 0.104314 0.262948
Django -0.120367 0.388723 -0.372841 0.022991 -1.152259 -0.696320 -0.419031 0.418834 0.125797 0.968078 -0.760250 0.551782 -0.248634 -0.252925 0.682538 0.361297 -0.351245 -1.307056 -0.893367 -0.059899 0.008820 1.166589 1.409403 -0.013122 0.366782 0.523463 0.143322 0.962405 -0.051098 -2.113662 -1.027958 -0.317898 -0.231664 1.540508 0.837780 -1.146800 -0.620186 -0.800831 0.303829 -0.868150 -0.897150 -1.033564 -0.343266 1.033394 0.431299 0.090592 1.342625 -1.904990 -1.407037 0.540706 0.237475 -1.293849 -1.036492 1.062611 -0.297580 0.190797 0.066127 -1.251466 0.265883 0.016468 0.644166 -0.423001 0.419395 1.036604 -0.609176 -0.519114 2.060414 -0.798578 0.673535 -0.025953 0.794735 -0.955911 -1.097320 -0.705586 0.105678 0.077536 -1.063004 1.030484 -0.803501 0.657342 -0.010847 0.429303 0.080433 0.012834 -1.248802 0.351178 -0.783248 1.453569 -1.067200 0.214365 0.183482 0.525979 0.027453 0.585826 -0.892731 1.740088 0.700332 1.544518 -0.465843 0.537741
data 1.306839 1.473372 -0.237156 -0.877572 0.015709 -0.740417 1.285573 -1.700802 1.380805 0.957078 0.408622 -0.237980 0.545695 0.095383 -0.188010 0.990424 0.841546 0.964160 -0.358844 -0.262526 -0.513333 1.596255 0.697605 -1.444185 -0.778169 -1.414812 -0.273790 -0.147125 1.256593 0.945753 0.974348 -0.879272 0.333417 1.269358 -0.213916 -0.915719 -0.913018 -1.814403 0.345482 -0.458025 -1.841864 -0.311580 -1.229908 -1.406626 0.750257 -0.943737 1.497566 -2.080813 -1.521932 0.179094 -0.940929 0.765355 1.155156 -1.306919 -1.058150 -1.561924 -0.370979 2.117816 0.306956 0.622960 -1.622558 0.482205 0.650725 1.540583 0.877222 0.821787 -0.091375 0.830047 1.710145 -0.325103 -0.000304 0.209390 -0.014482 0.291228 1.015872 -1.298006 0.417870 0.780618 0.014993 1.256278 -0.150265 0.265140 -1.920077 1.689761 1.508480 -0.808092 -0.550537 1.009906 -0.754429 0.308183 0.245184 -0.282754 -0.156588 0.380852 -0.112892 0.328799 -1.461118 0.719800 1.689756 -1.861196
2015 0.908633 -0.261743 0.496298 -0.231472 1.571054 -0.799165 0.799094 -0.987463 -0.294400 -0.083628 -0.203122 -0.108315 -0.518849 0.003580 -1.542532 0.555167 1.240880 -1.114007 0.966313 -1.560787 -0.367874 -0.577692 0.091132 -0.555277 -0.367286 -0.229076 1.001497 -0.006517 -0.107726 0.585219 0.295325 0.790770 -1.164595 -1.039702 -0.701368 0.767568 0.216926 0.148647 -0.545175 2.182813 -0.365597 -0.449408 0.768657 -0.289781 -1.817624 0.629945 -0.448395 -0.664893 1.660746 0.957151 -0.909505 -1.424095 -0.924746 -0.432078 1.309672 0.180047 0.025616 -1.173733 0.006550 1.661295 -0.912313 -0.543401 0.881620 0.097189 1.264271 0.727866 0.274725 -0.572287 -0.718690 0.805375 -0.662665 0.704902 1.405141 0.411158 -0.384090 0.231074 0.914396 0.997560 1.862835 -1.458695 1.538724 0.296187 0.851398 -0.267454 0.698743 -0.238283 -0.542103 -1.642470 -0.078531 -1.079042 -1.487290 0.545352 -0.002105 1.128947 -0.767633 -1.418780 -1.269876 0.390757 -1.014978 0.454519
end 0.201822 1.248966 -0.656340 -1.097472 0.973637 -1.735578 -0.685395 0.690782 -0.266249 0.572703 -0.859811 0.219902 0.413931 -0.330564 -0.687864 2.451140 -0.168259 -0.491811 -1.005299 -0.227783 -0.956317 0.773699 0.020575 -1.457243 1.356690 0.229697 -1.348410 0.566484 0.327566 -2.637481 -0.470802 -0.634801 1.729491 1.896606 -0.306031 0.275763 -0.511478 -1.482980 1.156598 0.726029 -2.088834 -0.379647 -1.065079 0.626655 0.583106 -0.004134 -0.524150 0.279232 -2.042722 1.884027 0.569751 -0.027662 -0.002836 -0.066929 -0.318703 0.318077 -1.580538 2.481100 -1.229062 -0.301460 1.525476 -0.379795 -0.218937 -0.026199 1.627759 -0.150840 1.959255 1.077026 1.491659 0.175209 -0.754085 0.340214 -2.637196 0.722624 0.357510 -0.008296 0.539821 -0.412149 -0.254244 0.471097 -0.599032 1.376551 -0.826741 -0.685235 0.047248 -2.142361 -1.262317 1.524595 0.815224 0.117855 -0.320703 1.324304 1.476283 0.433801 -1.454465 1.533117 -0.144733 -0.212636 0.926026 0.401524
web -0.417460 1.123307 -1.809532 -0.810408 0.430269 -0.120664 0.602963 -0.087190 0.005601 0.551428 0.250576 -0.199014 -0.010813 0.882466 0.290745 0.645241 -1.976525 0.364972 -0.714106 -0.133483 -0.812409 0.081852 1.549309 -1.023306 0.516856 1.146188 -0.185299 0.425926 0.208875 -1.815014 0.571289 0.847151 1.491694 0.092944 0.496832 0.086804 -0.478078 0.435714 0.431876 0.041466 -1.049858 0.444391 -0.659265 -0.773824 1.099299 0.148587 0.635955 -0.675138 0.936523 -0.467551 -0.265781 -0.799986 -0.296345 0.286339 -0.719805 -0.634390 -1.379824 2.224663 0.359835 0.611021 0.936422 0.589845 -0.951616 0.114453 1.087300 -1.768087 1.362639 0.927341 -0.224529 0.845804 -0.399334 -1.104224 -0.299818 -0.892151 0.901072 0.218901 -0.018447 -0.595162 1.118116 -0.529769 -2.425642 0.407564 0.606802 1.638850 -0.724987 0.760500 1.246502 1.251465 -0.892526 0.516167 -0.222592 0.162789 -0.430178 -1.451948 1.632180 0.489885 0.979616 0.205061 0.983780 -0.803730
Web 0.782591 0.203489 0.249206 -1.726639 0.077137 -2.364101 0.160830 0.156889 -0.981969 0.145210 0.331198 2.246760 -0.946063 0.123682 0.499397 1.693041 0.471945 -0.298135 -0.403194 -1.074975 0.445090 -0.777019 1.181439 -0.370280 1.359558 0.932241 -0.163263 0.868528 -0.748723 -0.840152 -0.959211 1.660246 0.396652 0.619694 0.058896 -0.762480 -1.136649 -0.351475 -0.130845 -0.113635 -0.900730 -0.730912 -0.036021 0.662292 0.019447 0.663620 -0.055033 -0.282046 -1.058625 0.955071 0.156943 -1.291068 -1.012001 0.994779 1.088129 -0.313286 -0.061743 0.867076 0.290529 0.274345 0.835788 -1.952331 -0.537722 0.951503 -0.344114 -0.777504 0.814311 -0.753400 -1.095150 0.400069 -0.002797 -1.477507 -0.973322 -0.056176 0.092482 0.820167 0.173472 0.307732 0.476809 -0.588283 -0.614109 1.471486 1.391330 0.338562 -1.513281 0.139983 -0.962585 0.545869 -0.425535 0.640123 -0.611660 1.559936 0.002439 -0.035352 -0.805024 1.110962 -0.080584 0.131486 -0.012309 -0.067982
Science 1.887429 1.077223 -0.443719 -0.327246 1.318668 -1.674819 -0.184738 0.149035 -0.472984 0.858829 -1.304755 0.396273 -1.774918 0.662592 -1.590285 1.817726 -1.064178 -0.967538 -1.041753 -0.017101 -0.817396 -0.149085 0.557567 0.260118 -0.808050 0.008224 1.148174 0.835595 -0.708967 -0.572809 -1.135511 -0.227110 -0.688663 0.497928 0.538243 0.929180 -0.591842 0.279775 -0.753277 0.694651 -0.930449 -0.927850 0.254192 0.249023 -0.358670 1.075812 0.144788 -0.641795 -1.479232 -0.003938 0.201570 -1.647594 -1.009944 0.178321 -0.503031 1.920441 0.707625 -0.289556 0.790350 0.803649 -0.311038 -1.717074 -0.911101 1.390773 0.492412 -0.507657 0.933257 0.507846 -1.141243 0.402328 0.213870 -0.988759 -0.832153 -0.713236 -0.146045 0.431129 -1.200280 0.797206 1.110929 0.022004 -0.693621 -0.080276 1.729820 -0.846929 -0.747628 0.398579 0.778680 -0.670727 -1.155522 0.775975 -0.623527 1.897015 -0.469504 -0.838640 0.779022 0.579663 0.403824 -1.335426 -1.729130 1.230390
C 0.386141 0.839780 -0.789633 0.306809 -1.375757 -0.504469 -0.285878 -1.070845 0.006014 2.447585 -1.355530 0.444073 -0.252154 -0.003573 0.455931 0.182819 -0.614802 -1.057760 -2.009925 -0.686210 0.181217 1.589035 2.568889 -0.404184 -1.705624 -0.195523 -0.080744 1.134718 0.008817 -0.333648 -0.430880 -0.990258 -0.852317 1.964087 0.314942 -0.568387 -1.215685 -0.199978 0.560914 -0.078372 -0.760026 -1.060330 -0.607193 0.194236 0.481802 0.354362 1.967891 -2.050701 -1.184636 0.701067 -0.160646 -1.965389 -0.698689 1.121647 -0.482355 -0.111618 0.681820 -0.977012 -0.114930 -0.087154 0.015255 0.041375 1.039001 1.537099 -0.442399 -0.857107 2.288972 -0.554369 1.233120 0.240457 0.053567 -0.439019 0.106427 -0.955299 1.140571 -0.720468 -1.604970 1.896580 -0.536448 0.466447 -0.320375 -0.472031 0.055907 0.121065 -0.529574 0.553157 -0.456694 1.784730 -1.412201 0.767719 0.092640 -0.042788 -1.032705 0.953853 -0.492683 0.511718 0.461368 1.011974 -0.642779 1.166920
University 1.715160 1.205263 0.375631 1.200630 0.923837 -1.070304 -0.962502 0.680279 0.200331 1.509883 0.035502 0.706967 -1.336752 -0.523851 -1.000452 0.016894 1.193206 -1.168462 0.975933 -0.650990 1.145771 -0.230561 0.757299 -1.277624 -1.684093 -0.027079 1.040582 -0.673607 0.301565 1.217947 0.489569 0.778306 -2.163694 -1.530067 -0.461378 1.759814 -0.448196 1.881252 -0.357563 1.141829 -0.234445 0.375174 -0.468756 0.827965 -1.607812 1.157985 -0.163342 -0.390353 0.852017 0.226109 -0.228565 -1.382532 -0.171098 0.629814 -0.252035 -0.050484 -0.298224 -1.329224 0.452317 1.036104 -0.210031 -0.174858 -0.500505 0.074468 0.072763 0.926125 -0.124326 -0.586362 -1.018921 0.886145 -1.703062 0.573754 0.900033 0.805448 -0.666728 0.720339 -0.111010 0.939211 0.130538 -0.575060 -0.324231 -0.787347 0.904075 0.221172 -1.391956 1.000265 1.171474 -1.394994 0.064434 0.122529 0.564852 0.695717 -1.537446 1.497448 0.481452 -0.125555 0.591066 -1.247415 -1.337878 0.027750
Development 1.617916 -0.079731 -0.969743 -1.347985 -0.088069 -1.908628 0.447961 0.040586 -0.487644 0.746084 -0.537888 -0.139802 -1.257015 -0.162072 -0.079897 0.988319 1.076365 -0.300211 -0.976542 0.420977 -0.500460 -0.051351 0.804121 1.225619 -0.026716 -0.529378 1.260295 0.476324 -1.010557 -1.768370 -0.980456 -0.559570 -0.461479 0.081580 0.640466 -1.227685 -0.452458 -0.998312 -0.241298 -0.252351 -1.508052 -0.926936 -0.131316 0.655964 -0.405269 1.265123 0.383286 -0.097838 -2.336689 0.478782 0.943889 -1.123948 -1.329576 0.289435 0.084015 1.129289 1.414428 -1.452198 0.416922 -0.128116 -0.040698 -1.472915 -0.595579 1.993649 0.295061 1.083248 1.380378 0.817985 -0.455916 0.181568 1.850519 -1.144550 -0.643682 -0.415351 0.301154 -0.927535 -0.754328 0.824739 -0.877269 -0.043182 0.160569 0.642763 1.251939 -0.410329 -0.975147 0.545599 0.175099 0.330435 -2.642904 0.637096 -1.181834 0.691337 0.523192 -1.149107 -0.332747 -0.109122 0.776886 0.306514 -1.140845 0.386637
| -0.091429 0.912080 1.100327 0.515360 0.554066 -0.446839 -0.950553 0.573527 -1.963575 -0.251859 0.714155 1.099350 0.249273 0.345209 -0.583673 -0.150508 1.150530 -1.242832 0.476085 0.806456 0.718733 -0.316581 0.636912 0.336399 -0.525167 0.534467 -0.080342 0.679536 -0.850666 -1.165364 -1.473468 0.799891 -1.908977 -1.106349 -0.063456 1.229160 -0.944269 1.189006 0.609054 0.633470 -0.669509 -0.659324 1.135903 0.623461 -0.039343 0.699489 0.295521 1.784065 0.970093 -0.336268 -0.571362 -1.498610 -0.831388 1.008255 1.349926 0.620226 0.419617 -0.221940 2.978672 0.065607 1.972268 -0.089579 -1.478422 0.160214 0.595442 0.168681 0.505010 -0.368031 -1.392116 0.863635 -1.194353 -0.261941 -1.064110 0.356004 -0.701220 0.101788 -0.349806 -1.206826 0.628857 -1.300405 0.144174 1.382900 1.077785 0.977800 -0.749765 0.627936 2.281492 -0.965569 -1.785558 0.369128 -0.108776 0.727147 0.263817 1.348834 0.434290 -0.097674 1.152546 0.565875 -0.880635 -0.223724
stack -0.178724 0.361844 -1.578832 -1.406783 -0.049352 -2.106723 -0.715059 -0.434969 -0.098778 -0.234814 0.132425 0.729309 -1.223281 0.132996 0.722034 2.325501 -1.680673 -0.730891 -2.390961 0.335179 -0.838254 0.565397 1.618387 -0.114617 1.894666 0.856756 -0.811084 1.071624 -0.072311 -2.637837 -0.463387 0.334357 1.909858 1.262844 1.029863 -0.682287 -0.884267 -1.095311 0.197894 -1.098330 -1.290651 -0.094280 0.641636 -1.105618 2.238833 0.893281 0.967102 -1.468686 -1.046191 0.831984 -0.538327 -0.661684 0.050244 0.575575 -0.312999 -0.271208 -0.818757 2.065886 1.279757 0.447737 0.808370 -1.816959 -1.130929 1.484297 2.000649 -1.811316 0.756933 0.399067 0.089571 -0.051289 0.969882 -1.546327 -1.263479 -1.144532 1.308465 -0.186231 -0.741653 -0.948315 1.409605 -1.071957 -0.826855 1.526666 0.048553 0.486260 -0.616448 -0.099116 0.771965 0.808413 -2.650995 0.478602 -0.091057 1.218856 0.243578 -1.429243 0.044148 0.341380 0.168097 -0.173482 0.482206 -0.534219
Engineer 1.196073 -0.963140 -0.652457 0.498591 0.431834 -0.874067 0.656249 -1.209415 -1.561865 0.493085 0.041041 -0.279123 -0.212014 0.193020 -0.965519 0.356364 0.530838 -0.330220 -0.159490 0.354676 -1.387198 0.009795 -0.213140 0.343026 -1.217385 -0.065066 1.361930 -0.962244 -0.643585 -1.787424 0.711552 -0.512687 0.052821 -0.155781 0.008680 -1.080074 0.856213 0.380847 -0.328693 1.040888 -1.152297 -0.406664 -0.448426 -0.697840 -1.078389 0.528345 -0.147241 0.571390 -0.030848 -0.407617 0.282359 -0.343012 -0.558019 0.109228 0.963214 0.675711 0.949409 -0.701632 1.611591 0.727831 0.797484 -0.814365 -1.162753 0.437480 0.828046 0.985285 0.609407 -0.107249 -1.132158 0.131804 1.034093 -0.901062 -1.006109 0.085695 0.226200 -0.267812 -0.476939 -0.461802 1.238647 -2.099429 1.113171 0.421927 1.406449 -0.247001 0.599230 0.706044 1.110774 -1.155041 -1.922189 -0.388727 -0.928467 0.661989 -0.038811 -0.406764 0.685921 -0.739782 0.521149 -0.514032 -0.365585 0.344452
software 1.966556 -0.619205 -0.762657 -0.351368 -0.197054 -0.394979 0.961197 -0.152307 0.044477 -0.238724 0.579503 0.226701 0.837179 0.639710 0.355154 0.850136 -1.364571 -0.125472 -0.901742 1.626899 0.251358 0.452345 0.031594 -0.033069 0.345255 0.236473 0.419370 -1.434116 -0.547010 0.408749 1.265428 -0.171123 1.574415 -0.225210 -0.532112 -1.389966 -0.969616 -0.847866 0.254249 -0.296773 -0.665149 0.118287 -1.119045 -0.110245 0.822093 -0.876691 0.872905 -1.319125 0.761579 -0.660575 0.410334 0.096674 0.107940 -0.216942 0.030605 -0.562178 -0.618436 0.250269 1.004818 1.469097 1.584882 0.142042 -0.869790 -0.562050 -0.781411 -0.100978 1.468324 1.351777 -0.282944 -0.067523 -0.682012 -2.201992 -1.415090 -0.779922 -0.630556 -0.723662 -0.783184 -1.142500 1.268597 -1.425062 -0.968454 0.043948 0.018565 -0.909164 -0.492268 1.639168 0.910445 -0.049916 -0.550986 0.268674 1.872434 0.257742 -0.599698 0.429633 1.795219 0.244580 2.167794 0.957075 0.714422 -0.113600
programming 0.911779 0.365782 -0.274358 -1.407287 0.316982 -1.159650 0.309178 0.160617 0.766141 -1.661860 0.532041 0.259336 -0.938644 -0.709464 0.689973 1.507399 -0.262127 -0.878533 -0.437250 0.593858 -0.159911 1.079422 0.063432 0.946379 0.825750 -0.541240 0.997885 -0.581345 -0.772143 -1.456533 -0.666779 -0.968201 1.603774 0.221828 0.816398 -1.462164 -1.114827 -2.534811 0.099354 -1.290023 -1.024616 0.158249 -0.531012 0.315424 1.725085 -0.249566 0.979020 -2.563278 -1.864659 1.152170 1.463190 1.823570 0.012079 -1.002454 -0.302112 0.832973 0.160315 -0.233043 0.201886 1.718763 -0.563929 -1.133466 -1.158442 1.971259 1.015416 0.664787 1.256082 0.850397 0.695814 0.248129 1.026935 -1.446486 -2.655500 0.130859 -0.921067 0.030168 -0.043479 -0.683972 0.337691 -0.709591 0.731478 0.422786 -0.583334 -0.367144 -1.095808 0.431717 0.040019 0.233873 -1.898873 0.247437 0.524142 0.615460 -0.517585 0.217150 -0.518814 1.104641 0.195350 0.625961 -0.287962 -0.432331
Computer 1.343138 1.411884 -0.652475 -1.283797 0.884648 -1.280711 -1.108122 -0.409683 -0.483829 2.192276 -1.530641 0.349545 -2.109918 -0.009812 -0.784861 1.924310 -0.394356 -0.489817 -0.579300 -0.981285 -1.371199 -0.423651 1.826674 0.142655 -1.214858 -0.155712 1.463595 -0.085875 -0.920695 -1.043852 -0.877983 0.091650 -0.054701 0.758967 0.218896 0.768992 -1.014361 0.632776 -1.015293 0.598274 -1.647693 -0.270769 0.110493 0.076110 0.298390 0.413663 0.308068 -0.739746 -1.718551 0.056263 0.748920 -1.184433 -0.461160 0.928779 -1.091318 1.664573 0.166530 -0.175796 0.026964 0.765084 -0.328192 -2.493837 -0.894741 1.381564 0.384305 0.133818 1.563350 0.203016 -1.625446 1.001313 0.511664 -0.422797 -1.261683 -1.181828 0.925711 0.261538 -1.016957 1.024467 0.599720 0.015083 -0.918035 -0.681557 1.926194 0.342012 -1.454743 0.473190 1.078415 -0.170323 -1.239785 0.796656 -1.386409 1.584892 -1.232516 -0.683834 0.478439 0.844340 0.489298 -1.866016 -2.176832 1.429598
experience 1.452491 0.791612 0.339823 -2.005821 0.442620 0.093786 1.405617 0.146111 0.466683 -1.221919 -0.237939 -0.669115 1.000073 -0.788590 -0.234687 0.901191 0.067660 -0.073186 0.313546 0.996344 -0.351048 0.971509 0.100094 1.117302 0.789995 -1.066428 0.594442 0.331595 -1.490571 -1.486367 -0.736356 -0.523271 1.353903 -0.488500 -0.536910 0.219503 -1.166231 -2.192746 -0.163115 -1.285910 -1.537776 0.403275 -1.007113 0.424409 0.643724 0.510591 1.231320 -2.971588 -0.148660 -0.093814 1.053769 0.751306 0.136383 -0.830437 0.265248 0.616296 -0.191796 0.264665 0.388477 0.564277 0.133504 -1.822840 -1.502218 0.352306 0.674354 -0.456231 0.814339 0.167057 0.493891 1.062810 -0.285240 -0.786870 -2.183724 -1.479243 -0.286398 -1.192764 -1.248938 0.035657 0.682223 -0.378496 1.306294 0.047356 -0.342046 -0.326742 0.172327 0.660540 -0.337243 -0.854773 -0.682529 -0.059315 -0.262991 -1.072668 1.717145 0.125398 0.199294 1.451354 -0.227159 0.172846 0.329101 0.421956
projects 2.107540 -1.028582 -0.759644 -0.475450 -0.076834 -0.093191 0.304723 0.073246 0.473800 -0.793246 -0.322683 -0.290227 0.326626 -0.812583 -0.454631 0.959966 -0.767540 -0.007355 -0.797831 1.862770 -1.081261 0.495208 0.475586 0.986171 0.740209 0.130325 0.429548 -0.809868 -0.899004 -0.732236 0.157261 -1.363253 1.860932 0.057627 0.030180 -0.770515 -0.304892 -1.128310 0.530381 -1.058837 -0.877644 -0.208981 -1.139629 -0.422987 1.498205 -0.516469 1.433900 -1.208128 0.447968 -0.282301 0.143518 1.293516 -0.237141 -1.229269 -0.258983 0.650880 -0.628981 0.122973 0.988042 1.186029 0.261398 -1.227007 -0.958686 -0.713567 0.648512 -0.185472 1.244262 0.998612 -0.241436 0.691986 0.465118 -0.829622 -2.131641 -1.023253 0.466215 -1.290254 -0.670723 -0.836388 1.375399 -0.404490 0.147003 -0.126408 0.070230 0.862003 -0.642362 -0.068263 0.533097 -0.428626 -1.508265 -0.528057 1.164014 -0.782024 1.044792 0.240092 0.718823 1.340539 1.278962 -0.167681 0.507954 0.781175
's -0.030704 -0.745926 0.563509 0.483234 2.286952 -0.183016 0.929555 -0.108332 -0.276305 -0.135078 0.735139 -0.066543 0.749798 0.798099 -0.491461 -0.131936 -0.240046 0.176106 -0.777207 2.172571 -1.258542 0.295068 -0.444043 -0.765872 2.311648 -0.690150 -0.719373 1.822801 1.635456 0.667732 -0.359726 -0.489210 0.435580 0.461571 -1.030285 0.326227 0.386876 0.946252 -0.258484 1.143043 -1.021595 -1.041895 -1.021781 0.071065 -0.852639 -0.216026 0.258096 2.326366 -1.149238 -0.272975 -0.364169 0.286628 -0.916869 0.467963 -1.459080 0.458837 -1.663300 0.319124 -0.647747 1.279793 -0.341956 1.082322 0.601850 -0.976546 -0.100472 -0.818204 2.706678 1.116215 -1.163707 1.466041 -1.604770 0.220085 0.334360 -0.241678 -0.009517 1.257776 -0.229951 0.026486 -0.335296 1.035373 -0.605281 0.667878 -0.141936 -0.383335 -0.385335 -0.077728 0.723126 1.020348 1.160841 -1.020070 -0.046559 0.595092 1.066481 0.512011 -0.545009 0.123949 0.123392 0.094741 0.655535 1.771962
2014 0.722929 -0.626529 0.392320 0.091780 1.420404 -0.750555 1.232061 -0.652712 -0.627296 0.390367 0.149462 -0.256040 0.305022 -0.351234 -1.633203 0.404725 1.058328 -1.263602 1.005691 -1.196414 -0.145720 -0.585514 0.069443 -0.757992 -0.860254 -0.293425 0.801013 -1.137947 -0.115006 0.199450 0.892083 1.137205 -0.842195 -1.053710 -0.819938 0.732141 0.205323 0.824765 -0.392790 1.807668 -0.520501 0.294878 -0.118331 -0.186360 -1.377116 0.755264 -0.608868 -0.310437 1.278637 1.449884 -0.233394 -1.058752 -0.224223 -0.036924 1.343057 -0.286367 -0.377301 -0.575416 0.407764 0.963012 -0.454163 -1.003207 0.524355 -0.063531 1.559257 0.646476 0.308321 -0.819633 -0.781068 0.926737 -0.065068 0.303256 0.545139 0.781057 -0.287550 0.802522 1.187086 0.250871 1.295071 -2.223868 1.479412 0.095040 0.817447 -0.328853 0.531770 -0.191990 -0.283463 -1.443624 0.288358 -1.311079 -1.516703 0.340800 -0.452862 1.138082 -0.609195 -1.444481 -0.838225 -0.540359 -0.885287 0.646281
application 0.161290 -0.806445 -1.620337 -1.380740 0.649946 -2.107702 1.248384 1.037445 1.435037 0.600117 0.458083 0.049056 -0.603912 0.857973 0.416414 1.044127 -0.056517 -0.309970 -0.447669 0.553511 -0.915835 -0.012074 0.584609 -0.306431 1.309939 0.265756 -0.930413 0.383472 1.455021 -1.332204 0.405148 0.737077 2.793664 0.253799 0.184637 -1.110628 0.036698 -0.236565 0.955882 0.536894 -1.293151 0.188168 -1.339520 0.641269 0.064320 0.819744 0.049682 0.380684 -0.487584 0.236874 0.225719 -1.329092 -0.012631 1.587964 -0.657851 -0.599676 -2.410976 1.870511 0.884121 0.365733 1.325716 0.152434 -0.813798 -0.226427 0.800178 -1.433861 2.073197 1.446290 -1.121155 -0.222516 0.197590 -1.713538 -0.771401 0.154309 -0.568970 0.512801 0.831553 -0.482341 0.784555 0.887187 -1.514613 1.415250 0.701508 0.791135 -0.278533 0.211367 -0.518408 1.990492 0.365232 0.467767 -0.994007 0.218811 0.500772 -1.687421 1.400304 -0.159548 0.748331 0.512581 1.329167 1.036806
Full 1.749139 0.591718 -0.377465 -2.060746 0.833291 -1.549374 0.275191 -0.029201 -1.210670 0.401763 -0.435137 0.599338 -0.943560 -0.412347 0.042902 2.247014 -0.261225 -0.225016 -0.535979 -0.278989 -0.054463 -0.504786 1.475026 0.860653 0.984640 0.455765 0.060577 0.257334 -1.152189 -1.705533 -1.236910 0.403575 0.127599 -0.777925 -0.187397 0.343711 -1.813030 -1.288352 -0.896846 -0.185279 -0.980382 -0.146385 0.356214 0.220143 1.271863 0.362638 -0.081534 -0.258381 -1.325829 1.381900 0.389782 -0.952560 -0.217008 0.381324 0.644999 1.780366 0.347404 1.126523 1.506399 0.305276 0.981717 -2.955086 -1.220493 0.970022 1.420748 -1.323779 1.254562 0.455790 -1.068619 0.893000 1.588045 -1.368542 -1.539320 -1.498387 -0.064743 0.562711 -0.135653 -0.014074 1.249631 -1.295575 -0.070697 0.934230 1.671736 -0.186242 -0.135488 -0.225310 0.256359 0.066061 -1.081030 0.478953 -1.239700 1.233837 -0.382668 -0.974520 0.668053 0.315118 0.151246 -1.045907 -1.425518 0.731171
Built -0.318715 0.268338 -0.415982 -0.576663 -0.430763 -0.068334 0.720178 0.345501 -0.680438 0.290457 1.321765 0.315893 1.707251 0.183290 1.039630 -0.621587 -0.328559 -0.073300 0.036525 1.371145 -0.142603 0.274136 -0.038609 -0.648670 2.233946 1.260788 -0.797428 2.670460 0.186352 -1.489869 -1.026516 -0.431934 -0.394727 -0.106417 -0.217640 0.120562 -0.103134 -0.150322 1.053942 -1.121604 -1.699077 -0.055727 -0.600401 0.697111 0.474760 0.335792 1.411082 0.946719 0.545178 -0.842193 0.174181 -0.475348 -1.242956 -0.107915 -0.902404 1.038019 -0.999003 0.451635 0.727655 -0.662944 0.282148 1.242805 -0.197482 -0.336485 -0.088930 -2.152466 1.975468 1.594413 0.277920 1.469485 -0.754329 0.255977 -0.401134 -1.521447 -0.907958 -0.286229 0.057123 -0.294923 -0.656379 1.294079 -1.092113 1.290501 -0.387582 1.660169 -0.879019 -0.059215 0.378945 1.972877 0.411650 -0.903777 0.018883 0.264708 1.325879 -0.500484 0.695550 1.248116 1.052010 1.279466 0.828758 0.241426
Current 0.338025 -0.374215 0.651922 0.121070 1.335262 -0.102348 0.699212 -1.041962 -1.974584 -0.495374 0.924195 0.084905 0.166195 0.190968 -0.493132 0.711545 0.592468 -0.493084 0.270013 0.057610 -0.113680 -0.348131 0.137702 -0.048957 -1.022775 0.448495 0.430191 -0.577683 -0.364241 -0.976349 -0.731400 -0.109607 0.286375 -0.210087 0.295055 0.221642 0.926695 1.178111 0.005279 1.458882 0.045105 -0.191653 0.593813 -0.065712 -1.034314 0.413916 0.439236 0.954073 0.662996 -0.255487 -0.335835 -0.972665 -0.297053 0.456993 0.845398 0.665491 0.040566 -1.191219 1.736732 0.033010 0.318161 -0.230521 -0.258470 0.088649 1.514425 0.376519 0.266833 -0.179616 -1.159576 0.879777 0.350923 0.582257 -1.177917 0.117300 -0.786250 0.282773 0.903917 -0.502987 1.232336 -1.523826 1.558793 0.625626 0.492660 0.095464 0.696210 -0.236288 0.166777 -1.511157 -1.080807 -0.389049 -1.774978 0.721221 0.203708 0.597664 -0.405358 -0.526135 -0.189023 0.437816 -0.734198 1.316561
CSS -0.569818 0.510929 -0.388711 -0.168430 -1.518858 -0.190719 -0.418116 -0.265469 -0.901878 0.265176 -0.297050 1.274301 -0.240370 -1.119632 0.654748 0.439463 -1.397024 -0.783387 -0.743564 -0.772895 0.043125 0.782759 1.756901 -0.265810 0.224065 1.570144 -0.264074 0.953416 -0.959577 -1.733319 -0.477611 -0.926426 -1.511899 1.820124 1.054146 -1.166974 -1.666920 -0.353427 1.234056 -0.190334 -1.362970 -0.597982 0.797644 0.023114 1.553629 -0.513662 1.305479 -0.817537 -0.002149 1.221942 -0.080429 -0.040005 -0.990889 0.624696 -0.125022 -0.270946 0.936238 0.320658 0.983217 -0.534445 1.191650 -0.831194 0.197825 1.145210 0.161404 0.659907 1.966596 -0.140101 0.639500 0.572432 0.737014 -0.061560 -1.110242 -0.249247 0.166054 -1.144852 -0.780474 0.092376 0.306259 -0.968712 -0.087068 1.502077 0.636800 0.798336 -0.860863 -0.806068 -0.559662 2.360848 -2.665965 0.735846 0.600707 -0.496883 0.326479 0.733774 -1.299564 1.178480 0.037594 1.321514 0.035733 0.701748
including 1.263048 0.993858 0.549598 0.128016 -0.172537 -2.047071 0.543383 -0.093376 0.158085 -0.730611 -1.270104 2.114317 -0.757850 0.460895 -0.193397 -0.815602 -0.162730 0.715041 -0.033430 1.060075 -0.555841 0.346263 0.440546 -0.249177 -0.285025 0.840798 1.126341 0.616882 0.116220 -0.754673 -0.698695 -1.575525 -0.942212 -0.325392 0.113203 -1.577422 -1.127407 -1.778885 -0.177491 0.330884 -1.809822 -0.782139 0.219321 0.213574 -0.338705 -0.357645 0.808584 -1.351983 -0.954776 -0.746349 0.381027 1.109480 -0.940253 -0.167614 -1.221949 0.955966 1.234581 -1.289437 -0.586447 0.900845 0.541782 0.207516 0.771828 0.461242 -1.544903 0.133417 -0.068235 0.906044 0.694891 1.342017 -0.385069 0.507800 0.758802 -1.255650 0.600120 -1.597140 -0.958604 1.048878 -0.489792 1.161876 0.165820 1.615987 -0.197734 0.142499 -0.922110 0.370544 -0.833675 0.915767 -1.118987 -0.796354 0.942693 2.132372 1.239510 1.038994 -1.013727 1.564880 1.072742 -0.451593 0.132888 -0.532217
built -0.981462 -1.517138 -1.467607 0.490714 -0.004195 -0.554111 -0.744347 0.163213 0.244271 0.582845 2.249553 0.343692 0.195276 0.423221 0.942685 0.965116 -0.417032 -1.438352 -1.320897 1.357056 0.205383 0.823486 0.021108 -0.446353 1.881344 0.343501 -1.273853 1.360955 1.219215 -1.466356 -0.850872 -0.330679 0.522112 0.971621 0.209618 -1.045741 0.259552 -0.088652 0.601182 -0.046583 -1.318891 0.364342 -0.445209 0.935709 0.570970 1.126243 0.857021 2.128714 -0.586833 0.940806 0.138233 -1.271796 -1.047475 0.890164 0.050696 0.140522 -1.311187 0.643043 1.224979 -0.805898 0.101466 1.378898 1.121646 -0.619029 0.935615 -1.421342 2.174432 1.523873 0.039233 -0.082902 0.480835 -0.058961 -1.305110 0.878544 -0.055821 1.347873 0.964330 -0.475582 -0.187474 0.695925 -1.143375 0.866996 -0.335170 0.125192 -1.332362 -0.389920 -0.396221 2.069021 -0.284825 -0.120660 -0.840247 0.410363 0.509929 0.094821 -0.554819 0.716642 0.461513 1.554046 0.441945 1.259258
June 0.525680 -0.636265 1.425322 0.284651 2.020407 -0.586168 1.581069 -0.881743 -1.572104 0.445408 0.656171 0.648122 0.849142 0.369977 -1.478319 0.862967 1.191190 -1.143243 1.234475 0.050501 -0.304756 -0.213571 -0.067201 -0.195437 0.397610 -0.194927 1.128251 -0.435436 -0.159901 -0.207197 -0.615726 0.551031 -1.570811 -1.467969 -0.715684 0.756014 0.023966 0.732740 -0.889399 1.599029 -0.801233 -0.638809 -0.088328 0.169933 -1.115588 0.709494 -0.807090 0.307012 0.962324 0.231272 -0.393878 -1.770618 -0.860500 0.024932 0.717018 0.425736 0.192665 -1.430145 0.835947 0.300794 -0.663156 -0.847561 0.174303 -0.556555 0.618672 0.249406 0.544284 -0.730538 -1.552753 1.750177 -0.123363 0.441706 0.535056 -0.788908 -0.938053 1.264910 0.729337 0.812848 0.791253 -1.829256 1.827187 0.646657 1.125862 0.101529 0.518839 0.479576 0.635337 -1.241400 0.058058 -0.799354 -1.935396 0.413598 -0.000028 0.660384 -0.192895 -0.573468 -0.572532 -0.780717 -0.553604 1.836419
May 0.396263 -0.032977 0.036574 0.084894 1.006604 0.733619 1.022916 -1.334777 -2.449952 0.250957 0.659288 0.664188 -0.140457 0.553485 -0.689817 0.038778 -0.457640 -0.713028 0.433619 -0.646485 -0.003781 -0.265815 0.939358 -0.707952 -2.239894 0.986640 0.859039 -0.306609 -0.118300 -0.823566 0.239593 -0.158597 -0.296203 -0.848899 0.538844 0.075895 1.365610 1.230179 -0.172666 1.544662 0.061066 0.512138 0.086225 0.069232 -1.007577 0.707121 -0.254899 0.067023 0.910677 0.095832 0.458634 -1.448733 -0.459047 0.735082 -0.396271 0.248706 -0.018962 -2.178272 0.866904 -0.085679 -0.379545 0.561033 0.574680 0.363593 1.265681 -0.373155 0.691486 -0.123502 -0.726005 1.064650 0.668031 0.725855 -0.390897 -0.634159 -1.132778 0.235020 0.805991 0.496634 1.407945 -1.067585 1.153739 -0.091925 0.573072 0.298299 -0.093973 -0.223483 -0.590705 -0.650115 -0.824188 -1.169897 -1.785156 1.111311 -1.071351 0.998979 -0.023526 -1.080120 0.227498 -0.519830 -1.736045 0.736419
HTML -1.175728 0.700541 -1.552244 -0.381446 -1.899753 -1.250746 -1.356340 -0.259456 -0.326092 1.749572 -0.737860 0.800305 -0.589872 -1.194988 1.192599 1.223669 -0.362060 -0.689345 -1.948530 -0.969559 -0.121834 0.566360 1.539015 -0.476499 0.199782 0.704990 -0.489947 0.479790 -0.524261 -2.045272 -0.712219 0.117008 -0.384920 2.060909 0.933204 -0.639074 -0.578979 -0.659246 1.374116 -0.932110 -0.354031 -1.382489 -0.126397 -0.110967 1.364852 0.580984 0.757434 -0.372632 0.032612 1.330322 1.259326 -1.441093 -0.883431 0.442753 0.082222 0.483354 0.655688 -0.954832 0.108639 0.310099 0.940273 -0.535440 -0.447678 0.747515 0.127085 -0.722573 1.408369 -0.410697 1.086814 0.110907 1.057865 -1.293818 -0.654575 -0.387793 0.153054 -1.441783 -0.442080 0.637195 0.729548 -0.276806 0.288411 1.604197 0.036312 1.460594 -0.871442 0.670048 0.278880 1.581878 -1.756310 -0.009378 0.963487 0.225941 -0.670579 1.432747 -1.056700 0.151290 1.224377 1.900754 0.261743 -0.141803
work 2.626883 -1.107619 0.220055 -0.142012 -0.235372 -0.247162 0.929969 0.467168 0.280281 -0.962645 -0.293399 0.135307 0.474756 -0.195977 -0.178057 0.772237 -1.022484 -0.098160 -1.058995 3.665936 -0.193085 0.543791 1.250670 0.964122 0.091417 1.023437 0.583573 -0.992381 -0.815653 -0.994968 -0.128586 -2.494210 1.244649 -0.755447 -0.541789 -1.933812 -1.371881 -1.922358 0.011725 -0.475735 -0.406036 -0.459224 -0.701982 0.400870 1.419387 -1.568903 1.525562 -0.435276 -1.575790 -0.067430 -0.424864 1.310763 -0.486732 -0.081030 -0.534499 1.799515 -0.252350 -1.071076 1.006266 0.735314 1.157015 -0.673529 -0.000466 -0.279865 -0.132232 0.299581 1.623740 1.087924 -0.276331 0.153878 -0.156268 -0.515277 -2.324227 -1.928592 -0.083817 -1.692414 -1.554415 -1.467989 -0.417257 -0.916348 0.363777 1.310473 0.323664 -0.475777 -0.163830 0.543671 0.960237 0.962772 -2.022853 -0.361084 0.910986 1.305839 0.993877 0.879250 -0.111503 0.853670 2.262638 0.414622 -0.198154 1.081972
A -0.224263 -0.573303 -0.871730 -0.298373 -0.615681 0.608083 0.885424 -0.517363 -0.148510 0.775095 1.497706 -0.005024 0.842071 0.639188 -0.186368 -0.153057 -0.554713 0.202912 -0.232953 0.056864 -0.404271 -0.501873 0.512684 -0.864324 -0.363092 0.485290 -0.488922 1.067793 0.710601 -0.834389 -0.785967 -0.747649 1.356144 -0.093973 0.390581 0.184811 0.670571 0.514772 0.209348 -0.235532 -1.000410 0.808348 -0.358362 0.363338 0.317322 0.248356 0.775740 0.830088 -0.509667 0.425364 0.351422 -0.778567 -0.099542 0.704580 -0.573356 0.917441 -1.355205 0.128240 0.393536 -0.220393 -0.905704 0.568259 -0.101797 0.285343 1.670262 -1.491313 1.418574 0.974489 -0.844082 0.339212 0.555799 0.396651 -0.936212 -0.907771 -0.530811 0.110924 0.078018 -0.249576 -0.161288 0.122892 -0.769362 0.515604 0.467363 1.052834 -0.601537 -0.050684 0.014154 0.853171 0.168129 -0.379263 -2.117852 0.506557 0.461679 -0.918020 -0.500746 0.154706 -0.330752 0.623524 -0.969832 1.341672
client 1.791775 0.528150 -0.008260 -1.788832 -0.055415 0.084852 1.982419 0.687891 1.012836 -1.116195 0.362692 -1.473480 1.583861 -1.342485 -0.725770 0.646480 0.836902 -0.190680 0.065403 0.437422 -0.109727 0.895497 -0.149014 -0.599970 1.393620 -1.174799 -0.158236 1.028099 0.095919 -2.230169 -0.634080 -1.284946 1.098835 -0.550424 -1.059247 0.294596 -0.619409 -2.194228 0.310155 -1.023270 -2.039655 0.607589 -2.198462 0.884124 0.618939 -0.036892 1.059216 -2.486132 -1.168097 1.625805 0.999839 0.872880 0.278189 -0.485774 -0.259983 -0.350318 -1.377363 1.214404 -0.647915 0.188520 -0.000957 -1.689031 -0.645383 0.034788 1.444558 0.115915 1.238987 0.968527 1.157247 0.373163 -0.769655 -0.321036 -2.659801 -0.580260 -0.386672 -1.212453 -0.490293 -0.151582 -1.502235 -0.331292 -0.270190 0.130396 -0.450097 -0.180829 -0.083450 0.135510 -0.401972 0.043784 -0.474244 -0.063132 -0.445979 -0.938991 1.955432 0.218531 -1.102036 1.707270 -0.956773 0.849469 0.261382 -0.299444
Git 0.734983 0.405996 -0.712450 -0.354351 -0.532555 -0.359202 -0.099935 0.129228 -0.436477 -1.281894 -1.021755 0.746195 -0.893309 -0.329193 0.655648 0.318256 -1.379782 -1.019588 -1.202851 0.438943 0.535375 1.095814 1.375092 0.918880 0.136101 0.650336 1.136906 -0.453543 -0.704208 -1.042651 0.077819 -0.574782 0.615343 1.251588 0.892411 -2.370512 -1.662745 -2.134660 0.378332 -0.465009 -0.413440 -0.439788 -1.140216 -0.175780 1.994240 -1.021705 1.189828 -2.533875 0.536366 0.835454 0.366971 0.262295 -1.148147 -0.151907 0.433273 0.030501 0.251828 -1.238459 0.378462 1.308045 1.329213 -0.118727 -0.142079 0.863245 -0.210608 0.568761 2.611595 -0.181317 1.038086 0.840192 0.036916 -1.651941 -1.994881 0.453914 0.102979 -0.512044 -0.736703 -0.851776 0.060013 -1.408447 -0.101976 0.249737 0.146087 -0.552591 -1.993695 0.969852 0.288713 0.989623 -2.673582 -0.077683 1.318477 0.666224 -1.184618 1.515571 -0.335413 0.885376 1.728218 1.603813 -0.592732 -0.443813
2012 1.386892 -0.338708 0.118135 0.161467 1.536196 0.275281 1.001690 -0.459789 -1.137942 0.455511 -0.072975 -0.399824 0.017998 -0.044054 -1.752792 0.143486 0.476312 -0.932808 0.939757 -0.814737 0.250185 -0.351107 0.840475 -0.776043 -2.815004 -0.518029 0.638577 -1.695352 -0.496771 0.022733 1.588344 0.109417 -0.771433 -2.206073 -0.806879 0.678545 0.820842 1.273712 -0.150518 1.863180 0.152244 0.191702 -0.282134 0.159513 -1.990129 0.627913 -0.303626 0.589075 1.312429 0.492406 0.002487 -1.157019 0.189174 0.189342 0.769928 -0.190220 -0.070036 -1.151986 1.072089 0.656898 -0.917234 -0.105119 0.572489 -0.031808 1.709735 0.436803 -0.327489 -0.603290 -1.161468 0.658788 0.117569 0.525534 0.185494 0.690446 -1.007691 0.649990 0.908756 0.175860 1.915454 -1.701399 1.175544 -0.100785 0.998953 -0.106123 0.451204 -0.060560 -0.558871 -1.451161 -0.024986 -1.283255 -1.400340 0.746595 -0.788972 1.425767 0.341047 -1.607756 0.037459 -1.196410 -1.512717 0.515271
CS 3.065411 0.756386 -0.511374 -2.308999 -0.112869 -1.368538 0.600434 -0.310523 0.110267 -0.333943 0.165507 -0.199156 -1.022173 -0.807091 -0.812866 1.447152 1.378771 -0.999975 -0.339282 0.121161 -0.530642 0.151072 1.149720 1.579814 0.027157 -1.252011 1.536890 0.336807 -1.656348 -1.347844 -1.202158 -0.237848 0.588264 -0.533544 0.440389 -0.255889 -1.320517 -1.986783 -0.712146 -1.252316 -2.016513 -0.343890 -0.328766 0.224221 0.423829 0.774790 1.157755 -2.262452 -2.327739 1.181568 1.149309 0.541393 -0.355574 0.009732 0.367473 1.204389 1.467033 -0.921195 0.616157 0.965836 -1.078872 -3.432625 -2.361311 2.437394 1.428463 1.107145 0.878319 0.218002 -0.729764 0.193912 0.911329 -1.120742 -1.983421 -0.678048 -0.061443 -0.838819 -1.324886 0.430933 -0.133507 -0.674129 1.042752 0.492103 0.872471 -0.344429 -0.465009 0.555023 0.265485 -1.081817 -3.062803 1.053681 -1.338897 0.575723 1.237572 -0.737873 -0.491366 0.667662 -0.428446 -0.010329 -1.680876 0.121716
Developer 0.429757 -0.714068 -0.339781 -0.175382 0.982013 -1.495944 1.269718 -1.117167 -1.440922 0.525398 -0.060803 -0.216338 -0.399527 -0.138500 -0.314550 1.597466 -0.309549 -0.683872 -1.132122 -0.248960 -0.717637 0.928501 0.615706 0.578321 0.559064 1.354266 1.023815 -0.036781 -0.062413 -2.263745 -0.036662 0.177476 -0.546561 0.441533 0.075367 -1.031635 -0.539915 -0.217993 -0.901270 1.426802 -0.960854 -0.141132 0.017517 -0.939990 0.261508 0.797099 -0.350241 0.187041 0.187330 1.470480 -0.704599 -1.704955 -0.960487 0.120760 0.977174 0.801089 0.109550 0.282691 1.712030 0.001381 0.924988 -1.472253 -0.551971 0.123776 1.006738 -0.024891 0.431331 -0.134767 -0.217713 0.649409 1.146908 -0.627381 -0.131258 -0.511187 0.814145 0.821796 0.860129 -0.554194 0.650351 -2.381241 0.858073 0.781005 1.782453 -0.886023 0.833312 0.180003 0.610666 0.033523 -1.925870 0.029803 -1.573788 0.297805 -0.766880 -0.206133 0.307565 -1.291677 -0.016888 0.037358 -0.137173 1.505641
Jan 0.458809 0.888338 1.618661 -1.170211 2.126540 0.670530 0.989288 -0.004683 -2.049206 -1.517200 0.094821 -0.712161 0.955824 -0.033679 -1.795383 0.161905 1.451197 -0.639651 1.091053 0.397252 0.395185 -0.435231 -0.069172 0.533340 0.022667 -0.756087 0.475621 1.161481 -0.759918 -0.817325 -1.020672 0.448908 -0.891895 -1.011533 0.102072 1.994836 0.988635 0.714828 -0.173633 1.276499 -0.635183 -0.265184 0.460251 0.460126 -1.584997 0.731618 -0.005606 0.445073 1.190744 -0.187460 0.558197 -0.859660 -0.705093 -0.127579 0.158085 0.407646 -0.453966 -1.540933 0.758042 0.396015 -0.824907 -0.026340 0.083383 -0.020742 0.882579 0.873539 0.531065 0.201887 -0.983944 1.871673 -0.826784 0.533111 -1.394926 0.069965 -1.672943 -0.024515 0.446280 0.372172 0.885990 -0.047868 1.280825 -0.008182 0.609839 0.392155 0.105518 -0.217883 0.492651 -1.905298 -0.990843 -0.972423 -1.691424 -0.146606 1.427836 0.731254 -0.426261 -0.111012 -0.470088 0.049773 -1.178502 -0.008568
Native 0.319465 -1.064761 -0.762780 -0.336084 -0.928003 -0.998842 -0.074887 0.960536 -1.010890 -0.447175 1.089989 1.363037 0.156790 -0.762835 0.960492 0.238319 -1.539541 -0.003549 -0.859887 0.872898 -0.033583 0.474168 0.314324 0.402840 1.066886 2.234125 -0.573036 1.643928 -0.181575 -2.060062 -0.667339 -1.437432 -0.770258 -0.618680 -1.044584 -0.847862 -1.452760 -1.427142 0.386856 -1.358427 -0.722274 0.176198 0.903422 0.803775 1.154078 -0.054454 0.784331 -0.413004 -1.084607 1.775250 0.851372 -0.149445 -1.069370 1.256029 -0.456204 1.097934 -0.564351 0.953964 1.557233 -0.531089 1.303922 -0.402244 0.806232 -0.281618 0.466536 -1.710849 1.203839 1.055041 0.128958 0.504714 1.624006 -0.549540 -1.147977 -1.812764 -0.502102 -0.696819 -0.205295 0.035142 0.707435 -1.043422 0.173492 1.745122 0.358296 0.678492 -0.315420 -0.783997 -0.333312 1.618625 -0.536616 -0.661619 0.586518 1.298493 0.784476 0.328192 -0.737419 1.840521 0.824490 -0.015344 -0.365038 0.279691
students 0.861453 -0.847806 0.940628 -0.101280 3.429129 -1.457380 -0.579559 1.020930 -0.669300 -1.486869 0.478495 0.135124 -1.096665 -0.541886 -0.420870 1.980132 1.425364 -0.914479 0.755490 2.683643 -1.381783 -0.529222 -0.059326 1.659951 2.098608 -1.203791 -0.681462 -0.517098 -0.220894 -0.881551 -1.249219 -0.899135 0.573640 -0.468152 -0.293538 1.232415 0.300745 1.265013 0.443036 0.217009 -0.970077 -1.714131 0.725763 0.775797 -0.235159 -0.130277 -0.054335 3.566965 -1.512048 -0.959256 -0.223538 1.671298 -0.131753 -0.834888 -0.590884 1.535862 -0.561899 0.357724 1.293557 1.979877 -1.862091 -0.781192 -1.101781 0.157196 0.986027 1.526685 0.212908 1.442422 -1.866694 1.217587 -0.813767 0.841753 -1.587518 0.847060 -1.162145 1.362718 0.968183 -1.384709 1.458770 1.643291 1.188890 2.265423 0.212501 0.954087 0.058823 -0.323819 0.843771 -0.671647 -0.991083 0.440424 -0.025185 1.322513 1.942708 0.332286 -0.544369 1.434760 0.097373 -0.255494 1.045503 1.467670
Data -0.320079 1.256674 -1.040242 -0.108458 0.035726 -1.152252 0.376630 -1.890705 0.671548 -0.688214 -1.703542 0.919318 -1.283695 0.751518 -0.518599 -0.645115 0.505863 -0.786169 -0.168375 -1.803364 -0.904033 1.231441 2.168775 0.704641 -1.584665 -1.515046 1.271845 1.229223 -1.031894 0.221276 -0.759005 1.108915 0.674178 1.326961 0.447569 -0.458229 -1.428452 -1.527682 0.018555 0.586436 -1.223570 -1.187513 -0.142568 -1.696100 0.097144 0.289462 1.222549 -3.309562 -0.062536 0.121372 0.466697 -1.028112 -0.880878 -0.027727 0.909346 -0.985678 0.951015 -0.796153 -1.638320 1.267880 -1.457335 0.350598 0.567934 2.562610 0.315014 1.000932 1.243774 -0.355616 1.035344 1.321442 -0.994174 0.119401 1.169799 1.300147 2.070518 -0.608932 -1.397881 2.138665 1.394165 0.470526 0.216135 -0.859761 0.647646 0.576353 -0.303331 1.187460 -1.388486 0.266820 -2.589371 0.115450 -1.177290 0.342333 -0.240280 0.959913 -1.370557 0.576071 -1.076008 0.945786 -1.628493 -0.562978
Javascript -0.345963 0.183579 -0.680398 -1.091042 -0.631767 0.650901 0.370279 -0.166246 -1.343722 0.995283 -0.987312 -0.051984 -0.173094 -0.296954 0.973534 0.837366 -2.754506 -0.487857 -1.405354 1.129709 -0.319066 0.927083 1.432195 0.546683 -0.168815 1.443357 0.230662 0.479973 -1.279402 -2.600061 0.169105 -0.726202 0.168564 1.611279 0.234312 -1.387103 -0.039461 -0.860451 -0.287689 -0.949479 -0.461608 0.177560 0.132496 0.088157 1.037768 -0.602993 0.953428 -1.718309 0.030659 0.381754 0.946426 -0.456762 -0.849032 0.661253 -0.893166 0.577163 0.423329 -0.615249 1.052417 0.431460 0.721777 -0.235807 0.466274 0.221577 -0.486900 -1.500245 1.649774 0.091306 0.713212 1.233061 1.664171 -1.042961 -1.842046 -2.579066 -0.230138 -0.649912 -1.378243 0.451888 1.622226 -0.415499 1.123506 0.784626 0.195448 0.094860 -0.195284 -0.111688 -0.786626 1.855975 -1.284901 -1.188729 -0.303034 0.207008 0.026467 0.921563 0.137306 0.678970 1.250788 0.065255 -0.692179 1.048955
API 0.249082 0.563186 0.185590 -1.749165 0.842039 -1.828857 2.698453 -0.089919 -0.668052 -0.092671 -0.286772 -1.548288 1.442481 -0.675952 0.496639 1.051463 0.107981 -0.119254 -1.441183 -0.863582 -0.520157 1.514889 0.726117 -2.389950 1.979217 0.013050 -0.041038 2.274852 1.285257 -2.102723 0.503017 0.492940 0.575485 1.939081 -1.594140 -0.566906 -0.729005 -1.529531 0.577791 1.200490 -1.247038 -0.715826 -2.188387 0.177406 -0.343836 -0.056574 0.553346 -1.697239 -1.650090 2.566561 -0.390696 -0.590580 -0.442489 0.084865 -0.429684 -1.694826 -2.211611 2.312682 -1.063714 -0.544813 1.165533 -0.290246 1.317683 0.289317 0.372035 -1.185901 2.413842 0.042803 2.640111 0.543801 -1.079990 -0.430863 -0.717593 -0.038867 0.829304 -0.026135 0.818110 0.181271 -2.081001 0.507678 -0.552345 0.778043 -0.577670 -0.261091 -0.733879 -0.545180 -0.291142 2.330117 0.067229 -0.930567 -0.209595 0.388357 0.105603 0.681570 -1.130400 0.106591 -0.542064 1.135849 1.264252 -0.014667
The -1.398654 1.048254 -1.912464 -1.614088 0.863234 -0.924339 -0.039766 0.960665 -0.447887 -0.252133 0.246835 0.814413 -0.873401 1.251101 0.319811 -0.131979 -0.239896 -1.393384 -0.505529 -1.493155 0.631790 0.092740 1.238866 -0.533104 0.034269 0.444368 -1.085226 1.899543 0.455114 -0.160942 -0.357251 0.510693 1.110034 -0.244345 1.461454 0.768690 0.209580 0.492165 1.282124 0.480154 -0.673578 1.512136 -1.537718 1.927123 0.455052 1.555341 -0.838925 0.204958 -0.055423 0.539064 0.382764 -1.665424 -1.448313 1.481330 -1.123335 -0.419162 -2.461462 0.747649 -0.803738 -0.837882 0.238192 0.893999 -0.570295 1.244729 1.958746 -1.596821 3.589121 0.827152 -0.400014 0.322360 -1.014069 -0.981937 -0.656766 0.341004 -1.149589 0.765668 0.635247 0.782660 -0.537406 0.859499 -2.732369 -1.070266 0.179483 0.156916 -3.154231 0.449486 -0.562223 1.219738 0.023688 1.298505 -1.132066 0.967572 -0.781116 -1.413410 0.170603 0.705815 0.843316 -0.422869 -1.198452 0.394660
month 3.794090 -0.255932 -0.878841 -1.834483 0.200845 -1.451367 0.907347 -0.808130 0.243182 0.683613 0.312858 -0.075520 -1.131889 -1.084559 -1.685212 1.785611 0.932458 -0.049111 -0.171139 0.428402 -1.327428 -1.078324 0.799654 0.084498 0.228001 -0.191970 0.726055 0.058781 -0.799170 -0.785577 -0.488358 -0.154274 0.485023 -1.727225 -0.245078 0.801668 -0.145620 -0.659171 -0.347405 -0.942972 -1.954349 -0.534018 0.489864 -0.057002 0.209908 0.163376 0.497169 -0.318819 -2.201618 0.318855 0.568515 0.218804 0.039160 0.328177 -0.648428 1.378724 0.647049 -0.271527 0.447696 0.970425 -0.922470 -2.991277 -2.397843 0.763188 2.136885 0.545438 0.335265 1.175370 -1.821770 -0.386257 1.232390 -0.049659 -1.023683 -0.965551 -0.150580 -1.232764 -0.658052 -0.148880 0.019992 -0.195042 0.112718 0.783770 1.015712 1.463543 0.328227 -0.566454 0.606320 -0.837819 -2.118418 1.330813 -1.429838 0.966409 1.431203 -1.622221 0.149274 -0.052133 -0.188068 -1.062879 -0.877035 -0.056052
clients 2.414679 0.224090 0.576971 -0.642866 -0.944308 0.266683 1.083620 -0.211316 0.701370 -1.169510 -2.025625 -1.199879 0.766564 -2.087949 -0.520386 -0.051155 0.030952 0.335329 0.330406 1.057038 -0.575265 0.500881 1.202234 0.807225 1.039293 -0.383332 -0.084533 0.047645 -1.170707 -1.462667 0.386472 -0.727932 0.465946 -0.653394 -1.126098 0.621015 -0.838379 -1.327761 0.283741 -1.148057 -0.788495 -0.493570 -1.920879 0.148501 0.449544 -0.566979 0.952663 -2.279738 2.401745 0.116364 -0.208562 0.547421 -0.093672 -1.042941 0.580409 -0.096667 -0.369510 -0.147172 0.324758 0.296594 0.747369 -2.542378 -1.131482 -2.271400 0.770871 0.016802 0.150507 -0.369433 0.316910 1.673696 -0.769166 -0.180747 -1.314443 -1.556008 0.406987 -3.089972 -0.973867 0.566692 0.760420 -0.577736 1.042037 -0.328730 1.053628 1.201458 0.492481 0.363276 -0.232134 -0.718568 -1.835070 -0.499060 1.083270 -1.623662 2.186060 0.699485 0.123261 1.528128 -0.039656 0.146853 0.435118 -0.029925
time 1.914490 -0.626606 -0.709862 -0.906304 -0.696526 -0.760423 0.315089 -1.219381 0.390662 1.318946 -0.613145 0.157139 -0.212880 0.177685 -0.517837 0.607606 -0.411407 0.930407 -0.829764 0.868007 -1.474184 -0.484358 1.359008 0.164078 -0.451394 0.256792 -0.763156 0.090731 0.372045 -0.345398 -0.126082 -1.315852 1.062807 -0.889231 -0.306875 0.352009 -0.739183 -0.665281 0.279671 -0.963447 -1.214067 -0.930249 -0.118292 -0.927671 0.862969 -0.773361 1.273950 0.495632 -1.671373 -0.508879 -1.281490 0.339915 0.398819 -0.022145 -0.884526 1.526886 -0.149111 0.990864 1.092264 0.285637 -0.260237 -1.591723 -1.522751 -0.158004 1.602646 -1.068120 0.341730 0.475957 -1.229779 -0.327084 0.673232 0.009878 -0.105637 -1.915749 0.878121 -1.642146 -0.485327 -0.067239 0.663913 0.337653 -0.051974 0.794210 0.353905 1.938241 0.547037 -0.441841 0.531056 0.508741 -1.311952 0.933883 -0.283510 0.599468 0.816612 -1.308432 0.739201 0.333611 0.294915 -0.444260 0.363285 0.244362
Stack 0.498727 0.441991 0.217755 -1.581535 0.427686 -1.436415 0.516005 -0.186732 -0.695402 -0.257055 0.137104 1.080361 -0.409584 -0.538483 -0.124902 1.948452 -1.311674 -0.389484 -1.377428 -0.108560 -0.058701 -0.056068 0.485595 -0.413538 1.968832 0.752230 0.092552 1.091965 -0.423270 -2.203469 -0.782555 0.790190 0.571021 -0.201999 -0.328689 -0.134380 -0.464656 -0.613668 -0.725004 -0.777860 -1.304197 0.021328 0.073662 -0.408334 0.929468 0.111857 -0.101008 -0.936385 -0.316605 1.410925 0.220471 -1.131078 0.017031 0.460328 0.426502 0.276911 -0.543268 1.124337 0.397821 -0.376330 0.760957 -2.206415 -0.416009 -0.125658 1.573489 -1.432268 -0.058646 -0.509558 -0.271849 0.691746 0.490735 -0.476915 -1.619391 -1.153178 0.477860 0.343448 0.160392 -0.685009 0.032501 -1.280017 -0.323606 1.630563 1.126084 -1.043177 -0.659025 -0.075087 -0.109405 -0.114794 -1.072319 -0.403160 -0.956925 1.896171 0.460134 -0.297428 -0.981992 0.281674 -0.278859 -0.297537 -0.688601 0.676122
Mocha 1.817676 1.571107 0.720260 -0.814066 -0.877292 -0.631174 -0.638641 0.712595 0.035187 -0.210645 -0.797194 1.079303 -0.353280 -0.652133 0.104802 0.992057 -0.068040 -0.882676 -1.618681 -0.143910 1.551254 0.618019 2.280394 0.848927 0.452928 -0.168770 1.416859 1.131364 -1.061168 -1.664357 -2.108975 -0.875749 -1.473898 0.713321 -0.373864 -1.250796 -2.025258 -1.841560 -0.518927 -0.394469 -1.173752 -1.006818 -0.406462 0.967261 0.601692 0.463735 2.297837 -3.006465 -1.672938 1.027437 0.840155 -0.464655 -1.386317 0.227348 0.527576 0.291147 1.294368 -0.957978 -0.564188 -0.363592 0.294079 -0.909885 1.136701 1.643896 -0.781255 0.056385 2.087760 -0.667297 1.894807 0.767421 0.228707 -0.989392 -2.434116 -0.865239 0.942414 -1.001607 -1.578611 1.385562 -1.196617 -1.279352 -0.375857 0.548137 -0.398347 -1.884575 -1.172605 0.667033 -0.404262 0.867025 -2.746916 0.466830 0.341352 0.479371 -0.399776 0.945804 -1.143493 2.017948 0.864677 0.924112 -0.608348 -1.143344
s 0.501985 -1.197432 0.391212 -0.188916 1.441737 -0.476248 1.266183 -0.277259 0.410179 -0.639384 0.817091 0.523091 -0.515911 0.373050 -0.300460 -1.005069 -0.189845 -0.595886 -0.035039 0.432588 -0.288811 0.116714 0.174010 0.070686 -0.627781 -1.200260 -0.262341 0.673335 -0.285630 1.660385 0.513765 0.243775 1.262871 -1.115906 -1.215635 0.458447 -0.195778 1.287409 0.244896 0.365689 -0.004055 0.113117 -0.821998 0.328145 -0.606281 0.906060 -0.144481 0.427622 0.076670 -0.169401 -0.034959 -0.511654 0.800966 0.365872 -0.369229 -0.888052 -0.458158 0.433065 0.623031 -0.054891 -0.503788 -0.632794 0.144721 0.009536 0.488332 -1.191891 0.515506 0.107404 -1.509484 0.963055 -0.727868 0.683102 0.691726 -0.170544 -0.317370 0.017522 -0.224583 0.324344 0.635539 0.611523 -0.190501 -0.522747 1.181829 0.061468 -0.916605 0.624319 -0.489675 0.156968 0.175697 -0.268986 -0.229140 -0.229500 0.157177 0.061373 0.352050 -0.272843 -0.613294 -1.025881 -0.464647 1.784093
Node.js -0.176750 0.984456 -0.081859 -1.830463 -0.266983 0.059719 0.344324 0.209156 -1.797457 -0.668455 0.406201 0.804926 0.094588 -0.675685 1.305722 0.153331 -1.111072 -0.096565 -1.415257 -0.010164 0.467327 0.870338 0.669452 0.181598 0.519714 1.383343 -0.308024 1.832986 -1.366465 -2.705337 -0.400089 -0.684542 0.241604 1.246658 -0.137396 -1.132298 -0.618711 -1.034312 -0.048645 -0.899352 -1.401180 0.421728 -0.625889 0.685229 0.691379 0.725710 1.311495 -1.983370 0.032775 1.271365 1.729294 -0.791163 -0.727119 0.554351 -0.707520 -0.221071 0.447202 0.045175 -0.063744 -0.072346 0.751939 -0.445707 1.006651 0.543978 -0.289798 -1.690457 1.808882 0.399869 1.483727 1.534916 0.575016 -0.542081 -1.690715 -1.898770 -0.276021 -0.776374 -0.344376 0.683720 0.456929 -0.659865 0.187635 1.183045 -0.173541 -0.171040 -0.919775 -0.098795 -1.585548 1.562295 -0.738831 -1.242889 -0.119828 0.791698 0.709857 0.825376 -0.355553 1.331517 0.694735 0.584046 -0.514160 0.271757
user 0.034362 1.261959 -0.924203 0.227693 0.432318 0.725390 0.482118 1.625322 1.297422 -0.413568 2.212822 -0.537831 0.792248 -1.104588 1.169805 0.764836 -1.128633 -0.534922 -0.281093 0.725266 0.418662 2.450854 -1.049423 0.240868 1.145620 0.537635 -1.893409 0.786381 0.749463 -1.761429 0.655994 -2.035574 0.004983 0.812768 -1.036637 0.062459 -0.720872 -0.253895 1.144920 -1.170169 -1.932078 0.844359 -0.168936 -0.096718 0.678004 -0.525301 2.259490 -0.971876 1.778312 -0.158535 1.655931 1.173595 0.235671 0.011930 -0.528340 0.011231 -1.224999 2.464673 0.814632 0.296147 -0.631650 2.101583 0.228348 -0.277790 0.725259 -0.086249 0.116739 2.453576 1.865610 0.022069 -0.453514 -0.681486 -1.646614 -0.439545 -1.170555 -0.488463 0.968874 0.072992 1.218351 0.281383 -0.591580 1.578540 -1.641371 0.263528 2.115375 0.471821 -1.793837 0.821537 0.028214 -0.334983 0.792322 -0.211214 1.596259 1.229284 0.015745 2.261807 0.630779 1.192665 2.483757 -0.585157
based -0.356012 0.662110 -1.136942 -1.190294 0.170109 -0.377559 1.481633 0.671125 0.128646 -0.674578 -0.646326 -0.264553 0.122979 0.157278 2.309269 -1.371533 -1.020891 0.370715 -0.483363 -0.426815 -0.807474 0.934222 0.959011 -0.165006 0.582114 -0.874989 -0.634610 2.313915 0.053633 -1.819327 1.337759 -0.864652 0.448078 -0.221604 -0.776006 -0.384058 -0.227779 -0.522937 0.991495 -0.798688 -0.533536 -0.265563 -1.378164 0.164001 -0.024324 0.057874 0.943592 -1.509292 0.398344 -0.280542 0.966064 -0.403354 -0.370243 0.342279 -0.963819 -1.342781 -0.383510 1.231967 0.876210 0.926195 0.064816 0.695836 -0.576762 0.473054 -0.459472 -1.447155 0.502421 0.756801 0.789204 1.105211 -0.639919 -1.354113 -0.145532 -1.218085 -0.008551 -1.525524 -1.590589 0.775397 0.962777 0.878828 -0.599088 0.273163 -0.103349 1.085864 -0.313865 2.325715 0.744095 1.454595 -1.472334 -0.587793 1.777841 -1.191514 -0.081822 -0.258912 0.769440 0.232402 0.554787 0.734546 0.877805 -0.491868
server 0.202816 1.994921 -0.435448 -2.044996 -0.068228 -0.406051 1.213785 0.737016 1.405262 -0.582162 1.368295 -1.000190 1.373878 -1.346894 0.190798 1.013237 1.088081 -1.168069 -0.109294 -0.761506 1.144279 1.916459 -0.294272 -1.369318 1.336558 -0.887614 -0.431165 2.089378 0.478542 -2.579083 -1.510412 -0.996556 -0.047315 0.350787 -0.558985 0.477014 -1.225729 -3.063823 0.619215 -1.824780 -3.041199 1.436404 -1.986483 1.066753 1.295877 0.919762 1.429538 -4.247793 -1.261524 2.560396 1.941798 0.957900 0.333386 -0.382070 -0.694093 -0.617680 -1.358700 1.509193 -1.305009 -0.519879 -0.931795 -0.413888 0.157052 1.318114 1.702014 -0.748307 1.464202 0.803872 3.185954 0.378700 -0.372218 -0.676838 -2.227887 -0.419715 -1.347646 -0.243953 0.131901 0.732534 -1.961522 0.235055 -0.286374 0.300032 -2.182689 -0.040298 -0.421957 -0.108881 -1.094876 0.565478 -0.122237 0.199913 -0.922126 -0.271919 1.053879 0.552432 -1.722385 1.685321 -1.315683 1.298685 0.149706 -1.397816
testing 1.037632 2.199510 -0.486441 -3.175320 0.759565 -0.872185 2.175205 0.916675 0.935638 -0.868933 -0.143967 -1.308460 0.845369 -0.240573 0.067180 0.843974 1.321067 -0.408479 -0.049911 -1.593021 -0.435951 1.071350 0.347938 -0.388103 0.778733 -2.055042 0.787201 1.627713 -1.085396 -1.866249 -0.822753 0.076583 0.810539 -0.266057 0.074484 0.645459 -0.395423 -1.912942 0.542861 -1.229643 -2.434245 0.345164 -2.221066 0.924624 0.757378 1.089472 0.827331 -3.998012 -1.205499 0.406071 1.491523 0.716907 -0.155192 -0.825819 -0.006648 -1.091185 -0.781407 1.481814 -0.422835 0.275237 -0.688705 -1.888462 -1.959768 2.122319 1.196434 -0.318926 1.069677 0.577204 1.382826 0.703402 -0.519532 -1.862224 -2.261861 -0.713177 -0.097857 -1.092051 -1.159042 0.464310 -0.844890 0.026124 -0.627140 -0.958303 -0.804543 0.389600 -0.778137 1.056861 0.649725 -0.924722 -1.304867 0.781999 -0.367808 -1.574132 1.082203 -1.004672 -0.316998 1.466618 -0.861816 0.330723 0.231557 -0.854555
July 0.157016 -0.377394 0.619285 0.434379 0.921687 -0.876221 0.602097 -1.086972 -1.462088 0.354663 0.522315 1.652071 0.067149 0.426871 -0.173690 0.694982 0.239977 -0.573817 0.679838 0.423459 -0.438214 -0.441843 0.090417 -0.721613 -0.209608 0.507957 0.835757 -0.800551 0.037230 -0.404787 -1.233931 0.047441 -0.247769 -0.408553 0.078531 -0.143087 0.136974 0.232986 0.021747 0.762162 -0.009480 -0.321228 0.624775 0.233996 -0.170295 0.085196 -0.533984 0.313179 -0.396653 -0.376378 0.341855 -0.750983 0.056115 0.929791 -0.015062 1.115951 0.418813 -1.948534 0.648411 -0.240530 0.658468 -0.690996 -0.132415 0.089037 0.291970 -0.629672 0.574650 -0.515734 -1.769521 1.208492 0.574894 0.583043 -0.450901 -1.007958 -0.867936 0.428493 0.267660 0.107112 0.466814 -1.102746 1.510640 0.895675 0.436823 0.030782 -0.338478 -0.080866 0.140985 -0.534657 -0.245706 -0.800707 -0.972527 1.382106 -0.504221 0.479043 -0.384914 -0.264030 0.248599 -0.593801 -0.722854 1.462297
6 2.822710 -0.268759 -0.691660 -1.987091 0.232853 -1.754269 0.262058 -0.541517 -0.097042 0.147551 0.182250 0.280719 -0.930417 -1.279264 -1.071599 1.486219 1.040784 -0.160075 -0.050652 0.174850 -0.901600 -0.703238 0.483445 0.635922 0.463182 -0.019168 0.589873 0.175205 -1.166501 -0.762704 -0.355759 0.153403 0.292872 -1.531545 -0.134310 0.770128 -0.434736 -0.428763 0.141615 -0.878975 -1.567770 -0.261340 0.505879 0.198509 -0.058574 0.935973 0.371787 -0.060412 -1.265121 0.151708 0.362639 0.622566 -0.052949 -0.081300 -0.159835 1.227089 0.623674 0.030797 1.082047 0.460611 -0.409629 -3.011396 -2.786135 0.704355 1.796728 0.116885 -0.222673 0.393000 -1.806894 0.064289 1.160390 -0.312434 -0.514540 -0.935850 -0.527972 -1.213146 -0.269815 0.196096 0.973011 -0.185836 0.815410 0.946685 1.122612 1.398360 0.102911 -0.618998 0.328066 -1.280479 -1.734327 0.941030 -0.593561 0.195068 1.519400 -1.401427 0.393955 0.006540 -0.097426 -0.992149 -0.647127 0.148279
Chai 1.787641 1.636497 0.027291 -1.177437 -0.211954 -0.194760 -1.208900 1.131963 -0.418130 0.077586 -1.080882 -0.033230 -0.141262 -0.121065 -0.286043 0.959582 -0.076117 -0.905760 -1.049003 -0.171490 1.252347 0.384370 1.630375 0.398609 0.663686 -0.488690 1.679897 1.442807 -0.698317 -1.142927 -2.200638 -1.106620 -1.632449 1.308560 -0.092977 -0.787585 -2.027682 -1.844618 -1.031090 -0.499558 -1.312960 -0.867784 -1.101174 0.998046 0.490714 1.111223 2.067930 -3.258619 -1.967877 1.197408 0.137530 -1.133467 -1.598500 0.433064 0.339533 -0.302614 0.673397 -1.073209 0.139658 -1.042218 0.096447 -1.600082 1.466982 1.508469 -0.858933 0.233097 2.178246 -0.279607 1.335895 0.892927 -0.114825 -1.193182 -1.949699 -0.465641 0.814836 -0.771135 -1.509540 1.364738 -1.335887 -0.941511 -0.518064 0.175739 -0.203332 -1.079429 -1.953922 0.573063 0.252465 0.326818 -2.019965 0.665339 0.247326 1.128530 0.080100 1.105802 -0.883434 2.126155 0.679780 0.716642 -1.354661 -0.620974
program 2.364977 -0.313396 -1.182087 -1.157807 -0.698836 -0.555855 -0.335435 -0.776976 1.106530 0.771301 0.405913 0.070391 -1.804921 -0.672302 0.186933 0.597339 0.133527 -0.701002 -0.628808 -0.109556 -0.741542 0.124285 0.816715 1.046258 -0.694596 -0.722939 0.798445 -0.102537 0.256823 -0.010485 0.214380 -0.639100 1.010222 -0.429971 -0.100238 -0.580462 -0.289107 -0.556683 -0.754073 -1.321004 -0.797242 -0.024070 0.020545 0.634142 0.013847 0.288946 0.739798 -1.623278 -2.751617 0.657409 1.043428 0.924847 0.081720 1.002641 -1.392755 0.640023 0.780182 -0.144679 0.300832 1.022435 -0.968893 -1.718436 -1.456000 1.067400 0.165791 -0.100470 0.877392 0.540702 -1.037023 -1.295190 1.991578 -1.225797 -0.551240 -0.320533 -0.610684 0.080546 -0.987145 1.344164 0.505982 0.689670 0.285524 -0.507623 0.391645 0.670042 -0.150470 0.487269 -0.280962 -0.053401 -0.678768 1.275797 0.046324 0.563610 -0.244256 -1.051199 0.786263 0.327649 0.228139 -0.574332 -1.043322 -0.244517
MERN -0.221527 1.062721 -1.316743 -1.410312 -0.396497 -2.328436 0.223936 -0.559799 0.443327 -0.412599 -0.511931 1.089825 -1.446279 -0.430348 0.603219 1.655811 -1.159899 0.399873 -1.233090 -0.137998 -1.026645 0.609841 2.013881 0.587457 0.966306 1.012292 -0.619458 0.921846 0.298774 -2.221457 -0.752430 -0.014588 1.609485 0.594599 0.682425 -1.324162 -2.092256 -1.910032 0.913744 -0.970241 -1.873872 -0.433758 -0.045655 -1.005353 2.712369 -0.322644 0.669083 -1.100463 -1.444557 1.066190 -0.335803 0.421228 0.115359 0.555972 -0.158616 0.161051 -0.393491 3.266192 1.011106 0.359348 1.131530 -1.323997 -1.394766 0.795173 1.710676 -1.793126 1.191448 0.638884 0.886013 0.303015 1.295354 -1.457096 -1.091595 -0.683530 1.173110 -0.781334 -0.038473 -0.618646 1.178030 -0.533311 -1.140790 2.127720 1.195085 1.959792 -0.000549 -0.119116 0.442721 2.140199 -2.573734 1.097947 0.223502 0.709866 -0.449963 -0.856357 0.136490 0.758087 0.130762 0.057351 1.262093 -1.011165
Experience 0.204742 0.335620 0.480371 -0.137355 0.278498 0.191734 0.368631 -0.128519 -0.120386 -0.050782 0.024582 -0.186453 0.388076 -0.339838 -0.249424 0.174824 0.521404 -0.498069 0.248509 -0.203643 0.567877 0.548772 0.290369 -0.144869 -0.213970 0.066738 0.202241 0.305389 0.144653 -0.415125 -0.116857 -0.171219 -0.556258 -0.289038 -0.313199 0.142767 -0.157393 -0.233894 0.057462 0.321039 -0.364328 0.131030 -0.209974 0.221232 -0.434526 0.111164 0.235683 -0.727401 0.762362 0.508823 0.059386 -0.540408 -0.316055 0.212395 0.263014 -0.358229 -0.161848 -0.563317 0.213636 0.191188 -0.145852 0.065329 0.787122 -0.280282 0.239234 0.153199 0.444418 -0.325921 0.441959 0.484497 -0.407962 0.391521 0.068532 -0.193132 -0.343298 -0.239269 0.139823 0.561424 0.064197 -0.398865 0.647040 0.095981 -0.033981 0.091834 0.216969 0.134613 -0.228414 -0.192081 -0.229078 -0.466835 -0.464658 -0.309083 -0.040800 0.889009 -0.464437 -0.105258 -0.386891 0.463918 -0.100764 0.019493
CA 0.810263 0.011034 0.875840 0.539208 1.533133 -0.415355 0.919303 -1.129532 -0.632209 0.092221 1.634910 0.224693 1.375497 0.334588 -0.384491 0.007740 2.050852 -1.435693 1.940361 0.441980 -0.000708 0.468371 0.027073 -0.785337 1.061827 -0.187366 1.352749 0.676732 0.903026 0.614109 -1.128764 1.101564 -1.759497 -1.875965 -0.570466 1.070572 0.316737 0.805075 0.102435 0.569748 0.047738 -0.454322 -0.142725 0.949089 -0.435060 0.800553 -0.095789 0.688923 1.240143 -1.333523 -0.875724 -0.415810 -0.782907 0.436732 0.829849 0.447206 -0.461632 -1.955244 1.265557 0.456642 0.080984 0.065711 -0.898282 -0.104686 0.356732 -0.322168 0.930836 -0.416671 -1.571379 1.352012 -1.710970 0.451671 0.249310 -0.045372 -1.456187 1.374836 1.502295 -0.270999 -0.490213 -0.735413 0.820917 0.129994 0.276574 0.984258 -0.115664 0.678793 1.634244 -1.080804 0.013016 0.092612 -0.655086 0.410175 -0.774397 0.284001 1.043741 -0.506643 -0.001944 0.537527 -0.259966 0.720783
customer 1.225396 -0.844099 -1.535862 1.245715 0.556032 -0.355265 0.628829 -1.639692 -0.116695 -0.285044 0.307710 -0.434978 1.236654 0.155673 -0.583992 0.182485 -1.151360 1.278904 0.116758 0.411704 -1.780884 -0.779262 -0.355611 -3.213454 0.601089 0.429863 -0.646051 -1.485537 1.593186 -0.959968 2.183966 -0.879099 1.242669 -0.667069 -0.630235 -0.468777 1.110988 -0.209536 0.977403 1.248031 -1.051949 -0.310458 -0.303853 -1.490382 -0.931648 -0.832947 0.373654 0.336560 0.898762 -0.309006 -0.557683 1.147438 0.447620 -0.582805 -0.427314 -0.523563 -1.009592 0.492413 0.501997 1.346120 0.666136 1.920537 0.217463 -1.496205 2.209429 -0.273030 0.550003 0.930195 0.266805 -0.390198 0.257580 0.500401 0.518261 -0.041710 0.661369 -1.467802 0.752171 -0.028396 1.718978 -1.467782 0.285255 1.340231 -1.479044 1.455506 1.114162 -0.799310 -0.156224 -0.488865 -0.687916 -0.961637 1.644000 0.837946 0.243460 0.411527 0.433247 -0.227788 0.405734 0.003905 1.167150 -1.295576
SQL -0.139814 1.102833 -0.331631 -0.981978 -1.085665 -0.393162 -0.067143 -0.384740 0.174858 0.133273 -0.329019 -0.252711 -0.193006 -0.663656 0.892976 0.275435 -0.511496 -0.656703 -0.892630 -0.756589 0.719706 0.931463 1.407679 0.536313 0.774569 0.047321 -0.044046 1.148900 -0.462196 -1.314548 -0.319141 0.045290 -0.301048 1.520415 0.337239 -1.075694 -1.199477 -1.640735 -0.096709 -0.806475 -0.946023 -0.189530 -0.409288 0.070999 0.487415 0.503810 1.474918 -2.943299 -0.164691 1.138734 0.356724 -1.229906 -0.756043 0.434836 0.087852 -0.754952 0.301617 -0.462477 0.225292 -0.116127 0.112622 -0.460628 0.698052 0.823371 -0.024830 -0.662260 1.474347 -0.394264 1.459819 0.636939 0.801489 -1.098308 -0.083150 -0.629092 0.044878 -0.357073 -0.763925 1.524869 0.202944 0.154060 0.351658 0.483269 0.108148 0.278592 -0.938582 0.508419 -1.473246 0.831419 -1.302953 -0.116739 0.032810 0.124680 -0.148184 0.774394 -0.263529 0.679318 -0.120835 1.746047 -0.341857 -0.650633
curriculum 3.033223 0.309088 -0.152776 -0.399431 0.727334 -1.950160 -0.740675 0.334607 0.051338 -0.303360 -0.711880 2.099038 -2.005006 0.370625 -0.279681 1.522360 -0.551103 -0.118285 -0.369703 3.147020 -0.646318 -0.449467 0.816428 1.066381 -0.144459 0.391149 1.196924 -0.423622 -0.587670 -1.317310 -1.194626 -1.720878 -0.057262 -1.110558 -0.288460 -1.111634 -1.087179 -1.205441 -0.774436 -0.845355 -1.446558 -1.091573 0.570552 0.794398 0.212566 -0.612193 0.938668 0.473480 -2.587197 -1.206968 1.118717 1.962895 -0.813360 0.698589 -1.240705 2.732529 1.844677 -1.708837 0.565636 1.523955 0.412298 -1.061521 -0.696523 1.025367 -0.748874 0.638161 0.904472 1.410137 -1.461282 1.022253 0.576294 -0.231798 -1.805284 -1.567251 -0.457837 -0.805836 -1.512794 -0.248180 0.526162 0.227888 0.249185 2.055349 0.730961 -0.327196 -0.549700 0.199891 0.728518 0.240224 -1.848687 -0.272103 0.794136 2.900246 0.931581 -0.475513 -0.155092 1.734339 2.190667 -1.465267 -0.923686 0.006101
San 1.366923 0.071211 0.935068 0.427643 1.667285 -0.670818 0.644220 -0.800966 -0.285901 -0.245598 1.072351 0.630109 0.930566 0.077183 -0.303379 0.552897 2.002890 -0.870169 1.842999 0.131583 0.352148 -0.062851 0.249293 -0.486418 1.534728 -0.534476 1.453984 0.383445 0.816627 0.823633 -1.263728 0.995302 -1.862468 -2.098176 -0.505552 1.333429 -0.041539 0.728792 -0.672343 1.110441 -0.151126 -0.426911 -0.195741 0.648638 -0.907784 0.666387 0.018999 0.831147 0.829053 -1.133503 -1.028520 -0.492888 -1.034854 0.550884 0.903422 0.709113 -0.124686 -2.184015 0.854581 0.882186 -0.030780 -0.656353 -0.880585 -0.000228 0.276092 0.093925 1.051486 -0.239950 -1.471792 1.652116 -1.818353 0.178739 0.657920 0.504727 -1.536509 1.815774 1.608758 -0.161710 -0.740380 -0.692173 0.999802 0.039831 0.994629 0.680975 0.127299 0.870862 1.665015 -1.193911 -0.059155 0.290303 -0.920990 0.361381 -0.722018 -0.244400 0.681667 -0.508544 -0.359017 0.395147 -0.614635 0.406163
Manager -0.325797 0.099497 0.369370 0.443679 0.504990 -1.103674 -0.761443 -0.312862 -1.124793 -0.698517 0.573714 0.374409 -0.276830 -0.923342 -0.047157 1.091266 1.234359 -0.843633 1.460264 -1.053656 -0.568937 -0.965748 -1.843663 -2.001375 0.462471 0.305042 0.461608 -0.903989 0.120865 -2.028940 0.431976 -0.037625 -0.230800 0.133576 0.570048 -0.185587 1.686181 -0.394128 0.952329 0.560495 -0.530320 -0.266881 0.771987 0.360548 -1.478660 0.499422 -1.369982 -1.556917 0.750969 0.541019 0.850768 -0.092689 -0.602787 -0.741621 -0.205519 -0.472412 0.163164 -1.471531 -0.470890 0.977158 0.269280 0.117955 0.352557 0.018229 1.110929 1.344203 0.175795 0.255383 0.315648 0.511898 1.234946 0.512032 -0.277331 0.701140 -1.828011 -0.327057 1.049436 0.468790 1.504932 -0.975098 2.036376 0.584277 -0.923487 0.935428 -0.141337 -0.732655 -0.286803 -2.219155 0.023024 -1.544548 0.579541 1.216672 -0.124846 0.591883 -1.058586 0.051723 -0.217045 0.521473 -0.473511 -1.526766
Engineering 2.420857 0.527452 -0.884557 -0.616889 1.152507 -1.030228 -0.073190 -0.107668 -0.436036 1.672462 -1.405938 -0.696372 -1.516394 -0.063769 -1.448274 1.267590 -0.214149 -0.235965 -0.634449 -0.523509 -0.660950 -0.520955 0.697864 -0.323871 -1.550464 -0.462149 1.036074 -0.492306 -0.512078 -0.397930 0.991113 -0.261052 -0.167154 -0.357392 -0.057706 0.812384 0.449736 1.184620 -0.640104 1.077262 -0.925312 -0.069210 -0.726345 -0.064410 -1.767770 0.936527 -0.465913 0.052692 -0.657611 0.234132 0.473344 -1.177082 -0.243064 0.274803 -1.004023 0.523437 -0.002684 -0.262755 0.020921 0.709097 -0.507114 -1.516662 -0.861635 0.518117 0.877146 0.733507 0.644242 0.397630 -1.433316 0.181023 0.429356 -0.511577 -0.110127 -0.435859 0.078974 -0.508442 -0.677994 1.308117 0.916106 -0.492901 -0.682394 -0.817381 1.491521 -0.493346 -0.489380 0.508602 0.495528 -0.814274 -0.898730 0.455135 -0.556992 0.715389 -0.874982 -0.958122 1.065100 -0.427814 0.387803 -2.060864 -1.076092 0.656110
Worked 0.897719 -0.483265 0.321734 -0.971441 0.291003 -0.882372 1.575357 -0.127248 -1.110868 -2.030694 -0.073835 -0.218306 1.017048 -0.759856 -0.330592 0.444327 0.307737 0.793128 0.443905 0.904756 -1.003602 -0.697621 -0.602645 -0.946625 0.866767 0.064320 0.327343 -0.468243 -0.786830 -1.944958 0.211729 -0.485390 1.385850 0.116597 -0.027016 -0.767244 1.030375 -1.292253 1.372191 -0.188931 -0.393038 -0.433284 -0.491065 0.146219 -0.134126 -0.600021 -0.152413 -1.183188 0.247195 -0.167413 0.543003 1.158870 -0.480192 -1.162057 -0.343779 -0.549249 -0.492416 -0.189088 -0.055633 0.570248 0.740643 -0.483938 0.549041 -0.870042 0.448244 0.010320 0.332226 0.849751 0.373939 1.154123 0.487657 0.051947 -1.760858 -0.621366 -0.356206 -2.064334 -0.169434 -0.541922 0.874142 -0.346721 1.125329 0.916863 -0.478867 1.314387 -0.044660 -0.790759 -0.199908 -1.162986 -1.009412 -1.773830 0.901565 -0.066131 1.949282 0.555280 -0.900949 1.133932 0.531818 0.442203 0.612510 -0.715139
EXPERIENCE 0.297937 0.257472 -0.089670 -0.461944 0.187466 -0.457098 0.132540 0.127771 0.013351 0.056826 0.118178 0.116758 -0.250693 -0.067549 -0.163757 0.307493 0.410895 -0.278177 0.050806 -0.127267 0.079607 -0.086819 0.171464 -0.082564 0.100465 -0.163174 0.162366 0.156629 -0.114808 -0.293675 -0.319253 0.248451 -0.056878 -0.291477 0.052839 0.124555 -0.182343 -0.220101 -0.063272 -0.094216 -0.377917 0.024821 -0.205183 0.313376 0.027384 0.247300 0.031345 -0.254259 -0.377488 0.225597 0.218837 -0.232064 -0.114479 0.167311 0.119781 0.107609 -0.081461 -0.097779 0.050816 0.099190 -0.096610 -0.474671 -0.405925 0.390366 0.311111 0.041480 0.245238 0.008653 -0.225606 0.138233 -0.032160 -0.190566 -0.305280 0.093869 -0.195515 0.187741 0.053911 0.039467 -0.241103 -0.025982 -0.143466 0.081921 0.273217 0.036099 -0.425303 0.093906 0.084352 -0.111149 -0.273578 0.215457 -0.402570 0.267784 0.014442 -0.126398 -0.121567 0.075254 -0.070633 -0.040321 -0.334161 -0.038578
2013 0.588784 0.065633 0.640961 -0.060061 1.342783 -0.296377 0.265945 -0.065802 -0.964603 -0.153932 0.124937 0.379732 0.180208 0.125530 -1.142470 0.232842 0.876925 -1.130643 0.776784 -0.073301 0.531649 -0.689341 0.646893 -0.263891 -0.402973 0.240809 0.095149 -0.251381 -0.000502 0.170667 0.104318 1.073582 -1.300731 -1.452713 -0.491368 0.959873 -0.359780 0.776821 0.039897 1.299014 -0.077237 -0.009468 0.745962 0.098436 -0.731510 0.328168 -0.283231 1.195547 1.312670 0.357454 -0.495320 -0.897338 -0.368464 0.642235 1.010957 -0.029837 -0.291226 -0.726567 1.016926 0.813748 0.253661 -0.121196 0.233546 0.019085 0.905295 0.401016 0.154380 -0.475252 -1.094911 1.046007 -0.905725 0.155534 0.372564 0.547228 -0.696647 0.534074 0.962368 -0.394717 0.965600 -1.304433 0.718643 0.775271 0.708488 0.280185 0.130289 -0.041504 0.294949 -0.941999 -0.439980 -0.834846 -0.816542 0.599269 -0.274348 0.976219 -0.071402 -1.024033 0.154222 -0.053897 -0.841542 -0.093239
Created 0.688168 -0.540465 -0.459630 -0.232197 -1.043084 -0.542858 0.396288 -0.328525 1.048047 -0.250872 1.352019 -0.322624 0.066277 -1.021896 1.116698 0.520347 0.156177 0.297652 0.140802 -0.787920 0.192414 0.209703 -0.159141 -0.934792 0.330416 0.345838 -0.232741 -0.374264 0.806422 0.604580 0.927766 0.016533 0.079711 -0.660781 -0.369154 -0.446660 0.137926 -0.203999 1.090816 -0.661536 0.541324 0.392792 0.221563 0.506236 -0.302467 0.413106 0.622884 -0.558922 0.563121 0.387142 0.305972 0.181491 -0.371055 0.578422 -0.376422 -0.719512 -0.469021 0.179408 0.563422 -0.161621 0.044940 0.178767 0.783711 -0.708673 1.018436 -0.323440 -0.032216 1.047902 0.407202 -0.432286 0.934061 0.041780 0.919346 0.217275 -0.916620 -0.883031 0.939546 0.519326 0.297390 -0.307400 0.217083 0.066771 -0.418306 1.200340 0.634623 -0.003973 -0.860944 -0.256440 0.228262 -0.012785 0.645918 -0.486537 -0.387282 -0.011461 0.260953 0.142628 -0.019883 0.788332 0.275331 -0.254942
Lead -0.664206 -0.805634 0.070441 -0.610051 1.689993 -0.385059 0.718394 -0.531417 -0.911709 -1.250102 1.013035 0.036163 -0.223579 -0.222933 0.713946 0.929214 0.362736 -0.223352 0.818349 -0.302802 -1.144572 0.057703 -0.350559 0.179230 1.092962 -0.545054 0.091296 -0.575876 -0.434895 -1.067753 -0.231645 0.136913 0.666897 0.042357 -0.142861 0.067587 0.690844 -0.092912 0.023174 0.308391 -0.157196 -0.507154 0.390157 -0.139539 -0.461073 0.293212 -0.010498 -0.281977 0.714796 -0.117072 0.373746 -0.395751 0.017523 -0.994685 0.435973 0.228515 -0.206548 -0.159760 0.687084 1.341406 -0.933104 -0.614231 -0.266718 0.121445 1.061160 -0.125387 0.108253 0.164787 -0.718813 1.155238 0.692858 -0.325563 -0.733951 -0.178474 -0.797044 0.860415 0.911703 -0.239334 2.367835 -0.486600 1.832484 0.319643 -0.302074 0.390435 0.358118 0.246400 -0.247138 -1.345427 -0.510058 -0.832376 -1.185183 0.285689 0.460819 0.232850 -0.181131 0.087737 -0.557157 0.902529 0.273918 0.935774
design 0.845239 0.610040 -1.105038 -0.863313 -0.226703 -0.655184 1.582702 -0.405899 0.015221 0.246590 -0.878470 -0.320912 0.995148 -0.185584 -0.726777 0.873933 -0.042675 0.521558 -1.194773 0.053249 -1.348766 1.082938 0.286011 -1.293383 -0.615539 -1.137130 -0.902895 -0.259771 -0.260380 -1.216784 -0.189716 -1.481154 2.514139 0.854999 -0.159425 -0.294025 -0.019647 -0.978446 1.905210 -0.476378 -1.661940 -0.680001 -1.671494 -0.089687 0.790244 -1.014335 0.391285 -0.781336 -0.315208 0.502959 1.111587 1.226497 0.454362 -0.414207 -0.181576 0.188862 -0.475853 1.317467 -0.723159 0.306604 0.816386 -0.427831 -0.858145 0.427294 1.392715 0.021384 1.312337 1.019231 0.842619 0.590248 -0.300016 -0.265349 -2.183052 -0.464160 0.737100 -2.312904 -0.326208 0.062778 0.380662 -0.521576 -0.034226 -0.163687 -0.869843 -0.132889 0.933967 -0.465976 -1.028130 0.288802 -0.446394 -0.191840 0.140580 -1.163620 1.677989 0.241880 -1.653998 1.781621 -0.001470 0.040339 1.061783 0.636102
2010 0.911290 0.405605 0.343326 0.192512 1.622206 0.330335 0.385274 -0.763779 -1.392773 -0.363478 0.597096 -0.661344 0.680292 -0.472050 -1.109178 0.209167 1.328917 -0.783165 1.311624 -0.688546 0.768622 -0.127467 0.734830 -1.127974 -1.782191 0.197756 0.544117 -0.690054 0.227494 -0.366155 0.656748 0.971146 -1.461946 -1.661618 -0.647584 1.110499 0.833182 1.339474 0.159640 1.784549 0.460611 0.411187 -0.047193 0.389018 -1.589633 0.788417 0.024281 0.957604 1.458625 -0.022256 -0.382733 -0.593593 -0.122256 0.361282 1.348256 -0.249568 -0.629396 -1.182877 1.344756 0.455257 0.176904 0.577669 0.290702 0.376059 1.450431 0.351834 -0.303406 -0.810757 -0.714804 0.658097 -0.903534 0.538262 -0.150206 1.298771 -1.150206 0.919377 1.896267 -0.903835 0.909331 -1.247279 1.099033 0.076171 0.407893 0.356827 0.591339 -0.387375 0.045828 -1.518465 -0.160870 -0.948438 -1.348225 0.728449 -0.891346 1.565128 0.353100 -1.564487 0.079863 0.104643 -1.192550 -0.535379
Project -0.208256 -0.169198 0.313140 0.887942 -0.195796 -1.789181 -0.793526 -0.686133 -0.548690 -0.734413 0.659781 1.491472 -0.368063 -0.496301 -0.148517 0.322641 0.454332 -0.563946 1.023201 -1.111230 -0.284698 -1.035199 -1.236052 -2.532364 0.411897 0.382810 0.719935 -1.415410 -0.293507 -1.226966 -0.128687 0.191951 0.252395 0.438445 0.121905 -0.795532 0.918610 -0.508312 0.673312 0.699615 -0.462632 0.021872 0.093651 0.610998 -0.773285 0.015399 -0.878047 -1.955916 0.409795 0.910059 1.049936 0.349597 0.402240 -0.844580 0.189898 -0.457143 0.371817 -1.749350 -0.507898 1.063055 0.751413 0.408837 0.289794 -0.211839 0.744013 0.642320 0.617074 -0.379213 -0.328976 0.871231 0.569439 0.538513 -0.808317 1.021580 -1.451668 -0.231475 0.589131 0.140274 1.607960 -1.451993 1.694136 0.567631 -0.503018 0.771024 -1.519418 -0.936858 -0.322015 -1.066812 0.080109 -1.668844 1.203076 1.398697 -0.257595 1.597501 -1.047638 0.216082 0.113958 0.532650 -0.264969 -0.982525
business 4.015104 -2.012821 -0.418413 0.938769 0.520138 -0.514336 1.107654 -1.364103 0.877767 0.210345 1.413501 -0.488363 0.511538 -0.447310 -0.802872 1.425964 -0.497870 0.770326 0.061182 0.411272 0.087234 -1.024149 -0.136492 -2.850845 -0.336047 0.703619 1.010661 -2.528529 1.406479 2.239265 2.475122 0.172475 0.986734 -0.868600 -0.686369 -0.251794 1.003554 1.397940 1.157524 1.137458 -0.368955 0.182772 -0.834422 -0.630345 -1.101141 -0.552435 0.185197 0.578576 1.580947 -0.910143 -0.600256 0.372100 0.228878 -0.853691 -1.528730 -0.787778 -0.913540 -0.050218 0.338072 1.604549 0.246884 0.802956 0.729924 -2.301672 0.434937 0.668669 0.506155 1.647846 -1.059271 -0.583639 -0.242113 -0.388216 1.080950 0.629499 -1.159335 -0.882709 1.204004 -0.661149 1.132382 -1.018179 -1.066934 -0.139004 -1.103843 1.425232 0.638907 0.182225 0.467336 -1.451271 0.713450 0.109164 2.039420 -0.118775 -1.211909 -0.420206 1.820422 -0.454874 1.514520 0.435990 0.750705 -0.768168
Skills -0.304782 0.250087 -0.031624 0.231790 0.018566 -0.008657 -0.273413 -0.063970 -0.564471 0.105666 -0.009605 0.199190 -0.134994 -0.277223 0.351916 0.075038 -0.392316 -0.293839 0.020588 -0.456276 0.097586 0.237166 0.272764 -0.253885 -0.362459 0.517307 0.103976 -0.063625 -0.175062 -0.518703 0.377982 -0.023911 -0.643528 0.099550 -0.119871 -0.049958 -0.154409 0.132820 0.230605 0.133314 0.051856 -0.029313 0.258584 -0.070816 -0.123267 -0.055313 0.065545 -0.470006 0.711294 0.282056 0.319764 -0.285822 -0.150269 0.170387 -0.036770 -0.116953 0.205161 -0.363997 0.390886 0.406067 0.180569 0.270480 0.258981 0.043522 0.122686 -0.105813 0.274978 -0.181958 0.378957 0.354680 0.126583 -0.182422 0.117350 -0.275794 -0.370657 -0.080943 0.112625 0.224842 0.829194 -0.556922 0.540460 0.277686 -0.068184 0.329536 0.037650 0.172190 0.067255 0.057137 -0.403240 -0.429456 0.353903 0.055740 -0.658701 0.811230 0.032095 -0.214872 0.297523 0.219491 -0.137916 -0.120129
code 0.738768 -1.122393 -1.177736 1.666439 1.735023 0.307792 -1.083773 0.736021 1.032810 -0.848649 2.526160 -0.136118 -1.173097 -0.467651 0.686945 1.215429 0.141138 -1.654252 -0.618804 0.956129 0.272760 1.347559 0.264379 -0.288563 0.206971 -0.462292 0.152390 -1.727839 0.935476 -0.283544 -0.913829 -2.358411 1.693268 -0.161888 0.367367 -0.070397 -0.329081 0.954299 0.550926 -0.525250 0.182596 0.060861 0.813906 0.507055 1.381306 0.418597 1.233024 0.412832 -1.361479 1.346847 0.202233 1.968362 1.434759 -0.204998 -1.419968 1.483926 -0.328244 -1.641672 0.447835 2.164030 -1.396388 0.783567 -0.727496 1.922514 1.993606 1.346196 1.274120 1.246373 -0.992056 -0.495566 0.407980 -0.060118 -2.116481 1.021383 -1.723551 1.696758 1.338886 -1.262976 0.699426 -1.555730 0.442049 -0.172789 -2.357460 -0.342338 -0.209644 0.664858 0.911101 -0.976478 -1.041134 1.119729 0.349316 0.503377 -0.784705 -0.262414 -0.613690 0.519195 0.841043 1.224675 -0.340912 0.828622
Mar 0.439284 -0.004655 0.524331 -0.957234 1.732800 0.937177 0.950292 -0.613735 -1.851003 -0.381473 0.410880 -1.279151 0.883977 -0.138306 -1.062510 0.859200 0.549896 -0.425393 0.062864 -0.396372 -0.045016 -0.429624 0.058358 -0.719845 -0.540688 0.786862 0.074160 0.726235 0.430410 -1.226793 -0.296802 -0.128983 -0.078780 0.462235 -0.232231 0.915586 1.505722 0.874605 0.163507 1.970307 0.240511 0.088955 0.578866 -0.063508 -1.588970 0.473753 0.213800 0.538239 0.569123 0.770795 -0.105369 -1.477414 -0.696474 0.518455 -0.335527 0.032712 -1.227066 -1.279246 0.518789 0.036425 -0.190654 0.626939 1.104647 -0.480830 1.467680 0.297715 1.091805 0.186072 -0.582182 0.902381 0.121100 0.748660 -1.133339 -0.301486 -1.232940 -0.429418 1.153779 0.200262 0.904718 -0.915956 1.265933 0.412052 -0.111583 0.495046 0.892239 -0.902306 -0.154355 -0.976991 -0.387546 -1.028248 -1.807838 0.060230 0.464312 0.873878 -0.521019 -1.233718 -0.554961 0.836171 -0.596466 0.456511
users 1.260537 0.536425 -1.524075 -0.692597 -0.818283 -1.293726 0.258538 0.545604 2.216404 1.603923 2.399446 0.335698 0.664033 -0.039891 0.539590 0.728091 0.332709 -0.092350 0.782327 1.248024 -0.063981 -0.062625 -0.569133 -1.496712 0.196684 0.681565 -1.194675 1.285486 1.199359 -0.279947 0.182083 -0.107447 0.189308 -0.646186 -1.049553 0.390265 0.272701 0.233700 1.232909 -1.280549 -1.947490 0.534461 -1.113437 1.394366 -0.494698 1.014753 1.058341 0.499786 -0.249008 -1.011191 0.857426 -0.038459 -0.994265 1.114987 -1.492836 -0.292480 -1.464868 0.975704 0.507259 -0.486846 -0.137953 0.839214 -0.170010 -0.774050 0.391925 -1.403431 0.822870 2.667894 -0.430409 -0.443177 -0.239368 0.020414 0.065118 -0.398456 -1.585303 -0.956575 0.420113 0.773399 -0.083257 1.970093 -1.894002 1.462379 -0.099559 2.316898 0.219230 -0.372972 -0.971824 1.563724 1.619596 -0.334608 0.001593 0.527792 1.161250 -0.777187 1.102929 1.240146 1.099458 0.180331 0.712257 -1.136421
skills 0.926018 1.038381 -1.238180 -0.497295 0.881638 -0.777911 -1.492779 0.852184 0.725389 1.245402 -1.140531 -0.654690 -1.591118 -0.965314 -0.156366 2.047946 -0.897316 -1.078016 -1.529725 0.204840 -0.977845 1.215631 0.903848 0.820237 -0.667042 -0.800113 0.061104 -0.809370 -1.079830 0.003472 0.289532 -1.361098 0.497320 1.343017 0.323707 0.683321 -0.532528 0.726905 0.817966 -0.687453 -0.278405 -0.722124 -0.296993 0.225349 0.956425 0.378588 0.937605 -0.399986 -1.325492 0.062670 0.611124 1.121876 0.407703 -0.506811 -1.030339 1.557515 0.332078 0.672634 1.495779 1.016429 -0.239383 -1.063861 -1.688217 1.711204 0.587451 0.073526 1.181393 0.567915 -0.040208 -0.188375 0.308093 -1.217652 -2.148170 -0.661414 0.056858 -0.594071 -0.953450 -0.003500 1.906224 0.024306 -0.088903 -0.356959 -0.188354 -0.537501 -0.119961 0.127326 1.012857 0.579513 -1.466297 1.358226 1.614509 -0.759627 -1.153524 0.311932 1.233171 1.007603 1.054821 -1.499984 0.778696 1.358326
College 1.711936 1.601853 0.554832 0.304441 1.856492 -1.249489 -0.438452 0.600492 0.334315 1.061404 0.201547 -0.173410 -1.365625 -0.889845 -1.348668 1.059875 1.259063 -1.314497 0.719130 -0.793617 0.829040 -0.089490 1.052426 -0.506405 -1.497980 0.025094 1.527097 -0.067852 0.358685 0.260951 -0.395228 0.295525 -2.618393 -0.855857 -0.723966 1.817109 -1.195308 1.292471 -0.987473 0.836519 -0.322821 0.601752 0.265461 0.641105 -0.257319 1.288315 0.099742 -0.107009 -0.709088 0.448495 -0.269673 -0.454722 -0.039081 0.795835 0.080049 0.842716 -0.198578 -0.925486 0.935667 0.618309 -0.522989 -1.435969 -0.394338 1.199536 0.409829 0.629416 -0.140080 -0.865735 -1.012812 0.603444 -1.008820 0.336422 -0.123132 0.509991 -0.487258 0.907582 0.325509 -0.080815 -0.705239 -0.596822 -0.132260 0.185567 0.996861 -0.026211 -0.399626 0.288104 1.494872 -1.118623 -0.503250 0.538735 -0.548020 0.819097 -1.554130 0.811580 -0.124960 -0.274356 -0.249396 -1.238170 -1.530888 0.130829
Assistant 0.382484 0.676649 0.389855 0.336747 0.690288 -0.862437 0.330347 -0.492216 -0.078303 0.503166 -0.111657 0.349955 -0.143112 -0.317230 -0.870152 0.196282 1.012850 -0.993269 1.393467 -1.527227 0.718125 -0.551992 0.297901 -1.537950 -2.031538 -0.109904 0.750547 -1.129111 0.176532 0.068264 0.737900 1.152297 -1.096711 -0.896564 -0.488119 0.808473 0.572462 1.096872 -0.116008 1.315465 -0.506294 0.351621 -0.486979 0.369566 -1.708620 0.860637 -0.539902 -1.629556 1.239771 0.845268 0.446778 -1.410564 -0.311796 0.581732 0.519481 -1.138032 -0.111874 -1.116325 0.127522 0.536583 -0.270407 -0.362195 0.548353 -0.080379 0.965402 0.790632 -0.173699 -1.136668 -0.374001 0.896791 -0.303664 0.718780 0.733392 1.039316 -0.911442 0.476860 0.370943 1.226913 0.840627 -1.281864 0.999810 -0.342177 0.666641 0.223866 0.052003 0.154586 -0.424992 -1.542987 0.384864 -1.070992 -0.899970 0.351382 -0.842206 1.652822 -0.381056 -0.748955 -0.658545 -0.677281 -1.338435 -0.206250
database 0.788470 0.705708 -0.821223 -1.176186 -0.050045 -0.750584 -1.038739 -0.154308 0.234854 -0.489092 1.319493 -0.097759 -0.251372 -1.008839 0.250194 2.147548 -0.467954 -0.397629 -0.833794 -0.167347 0.284972 0.134867 -0.796991 -1.920282 1.546166 0.244992 -0.242629 -0.174199 1.264680 -1.892781 0.575930 -0.662853 1.087501 0.851987 0.014224 -1.401594 0.502672 -2.014927 0.493156 -0.610171 -1.509605 0.615499 -0.830183 0.360338 0.180449 0.036754 0.152782 -2.133713 -1.360810 1.816903 0.999003 0.575538 -0.398711 -0.755575 -1.046829 -1.141626 -1.041479 1.278069 -0.877777 0.210515 0.328205 0.663271 1.508443 0.109599 1.504183 0.106977 1.491253 1.475911 2.205837 -0.437465 1.289904 -0.409289 -1.713096 0.854951 -1.167167 -0.208446 1.204934 0.426685 0.237523 -0.093962 -0.770068 0.728674 -2.187368 0.231315 -0.413794 -1.682429 -1.656021 0.437836 0.505123 -0.754455 1.418008 1.826252 -0.439197 0.203938 -0.330359 1.084047 0.220088 0.673776 0.523597 -3.130554
Jun 0.976390 0.201316 0.589513 -0.413335 1.621552 0.270008 0.692032 -0.243576 -1.582976 -0.274666 -0.049630 -0.875480 0.010196 -0.258756 -1.398017 0.913768 0.807404 -1.017156 0.637424 -1.032304 0.258200 -0.310209 0.207056 -0.520092 -1.806893 -0.115155 0.702822 -0.828598 -0.481605 -0.883596 0.581511 0.271858 -0.185989 -0.234060 0.102200 0.578911 1.044329 0.843122 -0.016735 2.024599 0.069451 0.129870 0.235470 0.141962 -1.757620 0.773696 -0.184961 -0.480516 0.973082 0.911225 0.078484 -1.332523 -0.419509 0.055240 0.585168 -0.320994 -0.146705 -1.470393 1.003358 0.343724 -0.272310 0.011985 0.350033 0.110223 1.474870 1.300101 0.288461 -0.242090 -0.287518 0.504668 0.284479 0.205194 -0.700410 0.630985 -1.188019 -0.025481 1.149078 0.427998 1.575753 -1.547351 1.632005 -0.131142 0.348451 -0.032561 0.626743 -0.515725 -0.550640 -1.961988 -0.602955 -0.862791 -1.216945 0.208490 -0.320218 1.189137 -0.325393 -1.140715 -0.364188 0.142828 -1.160106 0.266745
